100 20
7-6 0.0343528 -0.23501249 0.3230832 0.61666304 -0.40503424 0.3523602 0.28510872 0.50111955 0.04308005 -0.9268236 0.024032919 -0.008427556 0.49334547 0.83598423 0.3404214 0.20937133 -0.16157529 0.24309865 -0.011166447 -0.4419987
9-4 0.121954225 -0.252526 0.4715204 0.76505315 -0.38840705 0.12933889 0.2733603 0.5963173 0.068304464 -0.725689 0.057972398 -0.010281979 0.25893936 0.9131276 0.0049349973 0.30750722 -0.15899085 0.05811823 -0.09791685 -0.4153775
0-2 0.013484572 -0.14285271 0.22581472 0.73398054 -0.15162523 0.4315353 -0.008378525 0.5212328 0.14790688 -0.96740854 0.10548477 0.20389187 0.43122983 1.0395015 0.22861089 0.11658357 -0.029893374 0.18188979 0.026688283 -0.4050945
3-8 -0.0070296256 -0.069668494 0.48078135 0.7666291 -0.20723857 0.28368542 0.18981344 0.62071985 0.10663079 -0.66844785 0.13235575 0.22809096 0.5929419 0.9478084 -0.112486556 0.082907535 -0.215655 -0.17717765 -0.05648459 -0.35337466
6-6 0.02617114 0.29405665 -0.30457819 0.13646628 -0.4266157 -0.4042689 0.52019846 -0.0727724 -0.26867858 -0.89986837 -0.26732528 -0.31481773 0.25860682 0.3431705 -0.5182216 0.3361707 0.8814453 -0.640533 -0.04698647 0.18501082
4-9 0.16626355 -0.08030183 0.3749694 -0.45031843 -0.37500152 0.10078317 0.14655429 0.29954505 0.015432232 -0.48735946 0.31600857 -0.17637761 0.09639904 -0.20139623 0.36011395 1.1761063 0.4472016 -0.48335236 -0.19668709 -0.56985164
5-4 -0.04644618 0.19128437 -0.25334457 -0.010719945 -0.6562385 -0.097949415 0.44900396 -0.050499603 -0.46189126 -0.83714396 -0.1657492 -0.20392892 0.06277788 0.08388929 -0.5050412 -0.21543665 1.196159 -0.36061186 -0.26824018 0.3684842
4-3 0.0064705024 0.12366986 -0.13508001 -0.03518034 -0.29097787 -0.41118422 0.3639635 -0.09718124 -0.3280308 -0.7846075 -0.37441885 -0.2491133 0.1230996 0.32278705 -0.39284906 -0.016688196 1.2976683 -0.16855977 -0.3266695 0.38422996
5-6 0.23946477 -0.247324 0.39152855 -0.4349492 -0.46471077 0.18823422 0.21875335 0.38621363 -0.26006633 -0.39233714 0.37615857 -0.17909378 -0.13343666 -0.17703383 0.3722359 0.9707952 0.51151854 -0.5796177 -0.17708169 -0.5082479
2-1 -0.2001099 0.009356875 -0.27528474 -0.08776549 -0.47153786 -0.38439482 0.26069507 -0.13465948 -0.20394632 -0.595384 -0.43189162 -0.27834952 0.22725098 0.22999567 -0.47504234 -0.11029909 1.2759801 -0.4475616 -0.3424586 0.016724672
1-8 -0.381581 0.4779258 0.6981768 0.29020324 -0.71157444 0.10778964 0.15131825 0.77811444 -0.5623001 0.10632617 0.3396317 -0.12155091 -0.15677397 0.08681235 -0.05304966 0.20800126 0.5563429 -0.66176784 -0.33151904 0.30361363
9-0 -0.15837921 0.29036996 -0.17043768 -0.30441153 -0.20441493 -0.2557089 0.26556635 -0.016174678 -0.43979955 -0.8914063 -0.4114936 -0.23305762 0.30511796 0.25566 -0.48303658 -0.08280045 1.1702392 -0.58325446 -0.17841546 0.2856015
7-5 0.27263787 -0.18234263 0.40580878 -0.47655183 -0.19325674 -0.14796731 0.011718175 0.42016348 0.010871344 -0.527401 0.54793096 -0.12285706 0.15877715 -0.06326663 0.1766488 1.0913142 0.39513528 -0.3783451 -0.2724203 -0.5325317
2-9 0.031631716 -0.13677236 0.38163358 0.7397216 -0.14544584 0.3332923 0.3050171 0.4727511 0.020914903 -0.70840305 0.01371561 0.37609676 0.46074384 1.0710855 0.13103996 0.23211908 0.02549259 0.18201081 -0.03750601 -0.43441752
7-1 -0.6496054 0.4994603 0.80150735 0.49426463 -0.48647973 0.16993445 0.007812591 0.4908761 -0.20558304 0.42977002 0.5594609 0.004170824 -0.15138444 0.20257619 0.04696931 -0.00083486916 0.6994953 -0.40845028 -0.3996911 -0.029028373
8-2 -0.18333156 0.4562609 -0.052824274 -0.17637433 -0.20733406 -0.19227695 0.4699541 -0.16518937 -0.3697386 -0.6962832 -0.3579899 -0.01238347 0.26607087 0.20791613 -0.75734717 0.024754265 1.235402 -0.27197513 -0.14964853 0.27207887
5-9 -0.22120602 -0.048671674 0.40057328 0.6852559 -0.11809883 0.19941689 0.37076694 0.5551522 0.11398592 -0.8624836 0.085170075 0.40703285 0.4786074 0.9278217 0.16365671 0.18075383 -0.046358548 0.15518172 0.06474632 -0.5710153
3-2 -0.0026058382 0.14070812 -0.21029156 -0.16409262 -0.39021525 -0.35110426 0.431935 0.061461627 -0.2535886 -0.7356754 -0.25201738 -0.21364883 0.02481477 0.18709666 -0.44012833 0.27482706 1.2729576 -0.39757147 -0.10018732 0.35978556
0-5 0.06079041 -0.011132506 0.599576 -0.57979167 -0.3388 0.16576867 -0.017106477 0.4710203 -0.025319243 -0.39982632 0.3734877 -0.043718543 0.024507849 -0.25109446 0.28490913 1.0805885 0.46974075 -0.5150548 -0.19508545 -0.4045593
5-2 0.70236593 -0.24740538 0.3036889 0.5901311 0.36146492 0.99140215 -0.25113875 0.044491477 -0.15930974 -0.14030874 -0.24750356 0.032680314 0.86696845 -0.100775845 -0.22770776 0.29474077 0.2798771 0.056446824 -0.5191453 -0.20831574
9-9 0.49185884 -0.38554257 0.56292087 0.5034663 0.4077358 1.118659 -0.16205 0.13564508 -0.18532062 -0.059483066 -0.45308113 0.08141729 0.74947035 -0.09969172 -0.30480158 0.47186762 0.21682666 0.014701708 -0.48958954 -0.12947223
2-8 0.45838183 -0.3354219 0.5923944 0.6113611 0.44225553 0.93323094 0.052882336 0.15492919 0.05075627 -0.13537855 -0.40337119 0.3612697 0.75697976 -0.14277983 -0.26242304 0.18159172 0.197722 -0.23395184 -0.5176749 -0.34706694
8-9 -0.3735163 -0.13079427 0.077957004 0.29834428 0.022785343 0.416682 -1.2769798 0.39985958 0.13406426 -0.17827046 -0.41526854 -0.22642742 -0.08510991 0.1754112 -0.3179845 0.15111141 0.7178733 -0.19563484 0.006814043 -0.9599865
9-5 -0.28349793 0.24389274 0.80945003 0.5368535 -0.21057113 -0.114154905 0.13494216 0.7905783 -0.23947187 0.032018196 0.873731 0.1019096 -0.15345539 0.16755791 -0.04650676 -0.072531134 0.5710707 -0.6459053 0.03492469 0.117220394
0-3 -0.23241629 0.061639514 0.34969303 0.34976056 -0.23132606 0.32186705 -0.9894065 0.06691858 0.41338164 -0.44840455 -0.46878594 -0.18216187 -0.13241813 0.3809306 -0.1405386 -0.015672605 0.60115504 -0.05793978 -0.22237484 -1.0907296
0-6 -0.0999876 0.18826315 0.74306786 0.3924617 -0.44615918 0.055487376 0.250291 0.7817805 -0.44029424 0.040408112 0.75571746 -0.09451237 -0.33527067 -0.03631713 -0.112063 -0.030848216 0.5113838 -0.74310976 -0.26149482 -0.0029025972
6-8 0.4491956 -0.24270293 0.712935 0.37988856 -0.49149495 0.021016076 -0.1678604 -0.23302725 -0.24736418 -0.5550572 0.6349279 -0.52461755 0.5926396 -0.16299075 0.15607531 -0.034293726 0.57839113 0.44094846 0.19117406 0.4209033
9-6 0.37858084 -0.53783166 -0.1683524 0.33940116 0.19877054 -0.2227403 0.2578129 1.0551744 -0.39423895 -0.08735374 0.40630096 -0.5520045 0.047369134 -0.21153706 0.14565533 -0.17259355 0.90900195 0.10718361 -0.1452056 -0.24859238
2-7 -0.2617072 0.6583391 0.81664944 0.28929493 0.20191592 0.45377898 -0.00968671 0.11785498 -0.4107005 -0.7160426 -0.71941197 0.11271764 0.13330498 -0.539125 0.3027658 -0.049931727 0.44659927 -0.31025162 0.30719554 -0.24215709
5-5 -0.37511712 0.4921711 0.78770876 0.44950247 -0.57035494 -0.15257712 0.14641622 0.7000419 -0.20756574 0.02685444 0.48480728 -0.065933615 -0.07151414 -0.053637393 -0.1592336 0.2304002 0.5754893 -0.7134612 -0.30739233 0.33965307
8-8 0.42393643 -0.4496026 -0.08076166 0.123288825 0.26975366 -0.32821703 0.13320051 0.93583447 -0.034435287 0.12994984 0.1381884 -0.31159183 0.20773174 -0.056344066 0.16192089 -0.082142904 1.0811483 0.08529909 -0.052158356 -0.68902886
3-5 -0.26981476 0.78516746 0.8104607 0.109946884 0.4262876 0.21330492 -0.11822247 -0.36807358 -0.30602026 -0.71587616 -0.45980188 -0.13157515 -0.0060616364 -0.37348166 0.2155588 -0.011882796 0.6318124 -0.15316693 0.14648749 -0.73267
3-9 -0.45720896 0.25178626 1.0282885 0.55927706 -0.27289984 0.027823236 0.268766 0.7506429 -0.25118756 0.12685686 0.43324074 -0.016185375 -0.23807277 0.26959154 0.0055440553 0.20906343 0.4235473 -0.6203903 -0.2691217 0.26871327
5-3 0.15677737 -0.37666255 0.51245815 0.5105408 -0.44879907 0.28729424 0.080187924 -0.36542338 -0.096344225 -0.48242566 -0.0019460536 -0.4355331 0.6401424 0.039945062 0.1620555 -0.024987798 0.79786295 0.56719774 0.3281041 0.58797836
3-3 -0.020152614 0.05340498 0.0637663 -0.41877705 -0.37843648 0.082566395 0.31507817 0.3049023 -0.1634414 -0.37904194 0.44455105 -0.26366225 0.453179 -0.31402653 0.016210208 1.1734817 0.37074244 -0.42016754 -0.20411167 -0.56097865
6-1 -0.24541192 0.41309637 0.051052373 0.36811575 0.038143918 0.536426 -1.0734873 0.115428776 0.35836723 -0.37661338 -0.24579978 -0.0810281 -0.13269053 0.18658818 -0.29424754 0.113088585 0.75044847 0.023361294 -0.015040827 -0.9556363
1-2 -0.09313201 -0.23483366 0.48181504 0.4413224 -0.106558 0.21954542 -0.024409333 -0.36979365 -0.16712195 -0.5955356 0.5960715 -0.20493403 0.8464994 -0.13287899 0.1321106 -0.22084293 0.75855166 0.5263348 0.6879787 0.21128385
2-6 -0.37646878 0.22283104 1.1459867 0.347517 -0.47126004 0.13129263 0.13741449 0.5316132 -0.30412236 -0.098398894 0.6965102 -0.17306934 -0.15210238 -0.05341472 0.0447882 -0.37792405 0.44457382 -0.5403152 -0.4115323 0.23901679
4-2 0.25903118 -0.4208589 -0.23932238 0.096917324 0.44634402 -0.31589624 0.23039243 0.95372367 -0.24392873 0.01716429 0.14005674 -0.5199453 0.4668035 -0.006663401 -0.071744554 -0.07379567 0.92759365 -0.17051585 -0.028224563 -0.31966358
6-7 -0.06474065 -0.3678165 0.087782755 -0.50210977 -0.7520864 0.12829778 0.14023471 0.36610708 0.01751016 -0.6493744 0.27466157 -0.24162187 0.06651665 -0.40310344 0.28886056 1.0623598 0.6246782 -0.1391652 -0.1956745 -0.2025647
0-4 -0.44807422 0.5344606 0.68481284 0.23713422 0.1288334 0.1312344 -0.06108146 -0.08193498 -0.2286591 -0.919032 -0.6092162 -0.053560514 0.025494454 -0.52639884 0.22828667 0.11224524 0.38573456 -0.22726354 0.20594159 -0.698814
0-1 0.084280744 -0.38538104 0.50420576 0.6499401 -0.41033775 0.27612674 -0.069320686 -0.38192338 -0.287914 -0.57665974 0.3399442 -0.4406014 0.93541044 0.031438038 0.08731397 -0.15027376 0.45051935 0.5141583 0.3166074 0.259439
6-9 -0.5262422 0.089622624 0.82876366 0.5513918 -0.5480861 0.07729471 0.25255474 0.5261571 -0.250187 0.18322653 0.6266219 -0.17700562 -0.17851803 -0.019859783 0.22385208 -0.018023252 0.717967 -0.599284 -0.21695408 0.3680758
6-2 -0.37066662 0.3088955 0.08353936 0.07946043 0.5217872 0.85715705 0.2280402 -0.0670784 0.217039 0.17540205 0.22962157 -1.0012518 0.38657302 -0.09315689 -0.44026324 0.13562915 0.7323757 0.13129093 -0.21642761 -0.13799287
8-7 0.22140238 -0.43985796 0.23142233 -0.29769376 -0.42697355 0.2854205 0.17806959 0.4388764 0.19266106 -0.33988205 0.20359063 -0.17728731 0.092918284 -0.36665168 -0.02368576 1.1541171 0.37254986 -0.48378846 -0.18565354 -0.5565139
2-5 -0.0742862 -0.17610797 0.4990335 0.6306322 -0.199433 0.11205263 -0.09199984 -0.34747666 -0.37077558 -0.50435615 0.5849852 -0.4185081 0.6620971 0.02547874 0.25957882 0.004291146 0.6926817 0.56731635 0.35709777 0.41097125
9-3 0.09514689 -0.04332158 0.0060260925 -0.32286447 -0.61266005 0.18627673 -0.017677413 0.44463274 -0.0301587 -0.5446815 0.42371607 -0.011124125 0.1909188 -0.09558688 0.413247 1.0207765 0.38852036 -0.52200735 -0.17151284 -0.75763184
2-3 -0.06355111 -0.036643676 0.06786463 -0.42659602 -0.38071546 0.26458368 -0.03826159 0.23200853 -0.049768064 -0.34328672 0.57175773 -0.18553525 0.30297777 -0.27627775 0.13707604 1.0860347 0.39705464 -0.42055106 -0.30724347 -0.73925257
8-6 0.7972669 -0.2570179 0.51183796 0.6138878 0.235333 0.7023535 -0.00960432 0.11902868 0.122554556 -0.12146229 -0.31867212 0.25447404 0.7541385 -0.11102252 -0.19877435 0.6136698 0.31409582 0.1977105 -0.6394936 -0.35651398
1-7 0.1752849 -0.17235707 0.4931558 -0.2402259 -0.408806 0.32046288 0.35366467 0.28900313 0.19489312 -0.24164413 0.29556394 0.00750456 -0.054824065 -0.30679393 0.085906714 1.1616336 0.46253794 -0.6097444 -0.18447752 -0.33173487
1-6 0.7902336 -0.16805974 0.579157 0.6338592 0.2416069 0.7575993 0.025135575 0.22021809 -0.060715854 -0.07811822 -0.31355968 0.12173514 0.7293582 -0.03085004 -0.15241505 0.59301746 0.13423136 0.08308858 -0.5964766 -0.37256107
3-1 0.31838882 -0.73931164 0.0035555265 0.0625834 0.21032615 -0.4647589 0.326078 0.9784006 -0.08585387 -0.12101132 -0.0016534935 -0.54019445 0.37714225 -0.17899191 0.036171857 -0.14557452 0.96405876 0.15100837 -0.07862985 -0.3039384
0-0 0.63383484 -0.40108863 0.44336936 0.70016485 0.36594465 1.0584393 -0.13802134 0.08954861 0.093999885 -0.19620469 -0.41401815 0.14881866 0.63890785 -0.1817767 0.022999993 0.27232668 0.4116227 0.06835166 -0.6628563 -0.060214717
4-7 0.51895714 -0.26794076 0.3529418 0.7410608 0.4723222 1.0090636 -0.15513138 -0.061421886 0.10203934 -0.17666155 -0.36692995 0.3253596 0.6919951 -0.26906273 0.076548815 0.32477146 0.41130078 -0.17899843 -0.4500752 -0.3739201
3-7 0.70866996 -0.24310514 0.2813046 0.68553394 0.22727418 1.1425385 -0.0045317905 0.007718498 -0.07500097 -0.044497207 -0.39812082 0.1734487 0.48925596 0.088335164 -0.028699966 0.19815773 0.4021011 -0.11387714 -0.5557366 -0.438635
7-3 0.41982085 -0.6096308 0.40430817 0.58550644 0.32960412 0.8441706 -0.16327554 0.13240072 -0.17710388 0.006269717 -0.41201267 0.398854 0.59926164 -0.1439857 -0.06639529 0.32252488 0.5116756 0.11635991 -0.72930014 -0.41811335
6-3 0.5532169 -0.28210047 0.32570463 0.32610688 0.6539646 0.9445195 -0.050425462 0.2084229 -0.23945919 -0.13733865 -0.34036425 0.29378322 0.684575 0.005365163 -0.17003295 0.31580225 0.47938046 0.15821734 -0.6117637 -0.16425653
1-9 -0.067328855 0.33590788 -0.16201986 0.008051867 -0.53104025 -0.31475526 0.4431642 -0.03899903 -0.1321417 -0.6838226 -0.24532975 -0.14933428 0.18910503 0.15580389 -0.46916938 -0.013825195 1.2214998 -0.5940078 -0.39742488 0.36247787
4-6 -0.3709101 -0.0021376284 0.24179909 0.34026915 -0.2153485 0.5259485 -0.98753446 0.14576967 0.050240815 -0.25314176 -0.5298215 -0.043536164 0.06682036 0.43777776 -0.2298656 -0.0041790684 0.5726509 -0.01770277 -0.19172345 -1.024892
5-7 0.33588684 -0.24105242 0.02393671 0.11009018 0.4927636 -0.5564347 0.17014946 1.0710163 0.13312759 -0.36175376 0.084684804 -0.025029931 0.30607015 -0.5102372 0.034552135 0.06211618 0.91821367 0.14430374 0.07469309 -0.51968753
6-0 -0.33465812 0.577659 0.8821358 0.10867616 0.14570987 0.15941423 -0.129124 -0.28811133 -0.2134393 -0.70507115 -0.7274535 -0.06783891 0.056802396 -0.40724775 0.3125968 -0.043525532 0.66438574 -0.17698345 0.13820526 -0.6692049
7-9 -0.14030416 0.35406142 -0.25762448 -0.14617659 -0.2698652 -0.2928761 0.32218271 -0.10181311 -0.16951905 -0.9500413 -0.26248276 -0.14398128 0.2652649 -0.012938891 -0.27993494 -0.08947484 1.2589235 -0.46472535 -0.17182417 0.26306334
0-9 -0.28602484 0.2906686 -0.2745391 -0.1678188 -0.2865889 -0.22434668 0.43920228 -0.08791315 -0.031093655 -0.7327597 -0.30562434 -0.35683095 0.371348 0.077440165 -0.57797194 -0.009218763 1.2255135 -0.4778531 -0.2229513 0.3409592
7-0 -0.4663498 0.32044807 0.28023037 0.07441726 0.47855294 0.71535575 0.27014527 0.01662122 0.11694198 0.14404765 0.41014346 -0.95449156 0.072693534 -0.10437379 -0.6052896 0.1896601 0.77177435 0.18253398 -0.12770794 0.04528726
7-7 -0.02778303 -0.34554312 0.5310427 0.54254633 -0.08457 0.066503435 -0.1668473 -0.18491149 -0.08920864 -1.0992782 0.48122233 -0.1971532 0.6830214 -0.12396242 0.054404434 0.0011578418 0.42735106 0.4484329 0.5046731 0.4438518
8-0 -0.68612534 0.26098424 0.91496813 0.4964999 -0.24008022 -0.083373934 0.059400775 0.62983745 -0.49185002 -0.18075536 0.6033749 -0.06783024 -0.1540514 -0.12830193 -0.039800007 0.0058702296 0.3752243 -0.67440087 -0.4186158 0.2156394
3-0 0.26960716 -0.4778404 0.31626385 0.6244342 -0.16252457 0.1503274 0.0066590165 -0.24196965 -0.41533038 -0.6979368 0.54000837 -0.38150373 0.38242373 -0.061237793 0.12682603 -0.14755668 0.8243291 0.6737674 0.48864818 0.29568353
2-4 -0.0880809 0.31657577 0.3026537 -0.115103826 0.45569316 0.6542956 0.13877802 0.0028847922 0.33004197 -0.12658873 0.5081702 -1.0396569 0.17763722 -0.11481616 -0.65805244 0.3484603 0.67217904 0.33289036 -0.09389354 0.11690258
8-3 -0.43202105 0.06755668 0.069709755 0.08733429 0.5067041 0.48574176 0.22202434 -0.33231795 0.088188805 -0.21193863 0.3966952 -1.0304122 0.4030824 0.039736703 -0.511957 0.22967887 0.681469 0.13891472 -0.38424742 0.14217836
3-4 -0.3068463 0.4015271 0.29263848 -0.23958844 0.63278157 0.5740888 0.03521791 0.017139351 0.30691093 -0.35053116 0.50568104 -0.78685606 0.18422373 -0.32199392 -0.619823 0.3240091 0.59883916 0.15777263 -0.1686489 -0.060184017
4-0 -0.6175089 0.3296116 0.8053382 0.6213682 -0.31036437 0.049323373 0.20179273 0.55193114 -0.28952354 0.173584 0.6712838 -0.15878572 -0.03447683 -0.0072932914 -0.11060598 -0.062354963 0.48114696 -0.5505906 -0.38295895 0.16560206
8-4 0.09438481 -0.16585414 0.3119908 0.47192112 -0.35343063 0.44289353 0.050823756 -0.1414931 -0.026594141 -0.7530909 0.5250875 -0.31199706 0.6226179 0.04151609 -0.019232187 -0.1681475 0.59797055 0.7676155 0.3393076 0.36831623
4-4 0.018524522 -0.29897708 0.24360901 0.5320603 -0.4116813 0.30293366 -0.07404512 -0.04577871 -0.29017264 -0.7876562 0.2779651 -0.38535807 0.6469679 0.16146323 0.008819948 -0.18734786 0.5901527 0.47039437 0.5363526 0.5001238
9-7 -0.07725027 -0.6500786 0.49195448 0.6008151 0.007277409 0.08200577 -0.015989399 -0.1879175 -0.17520739 -0.5678663 0.5782343 -0.37801293 0.5850958 -0.28092495 -0.1076276 -0.09747484 0.6981302 0.67643434 0.3078763 0.33641237
0-7 0.106369704 -0.3972311 -0.19269975 0.23734285 0.5157791 -0.11245588 0.27629018 1.1372786 -0.19560654 0.06293916 0.35095292 -0.14905266 0.25185946 -0.2713665 -0.05984064 -0.044889458 0.99368405 -0.0018153078 -0.040574804 -0.24690102
3-6 -0.43739218 -0.062169142 0.22394429 0.24048358 -0.23430383 0.53580487 -0.9681548 0.24622226 0.33661827 -0.14843178 -0.64980423 -0.081580654 0.20157881 0.09099856 -0.17464456 -0.085371666 0.7168706 -0.07532295 -0.107880905 -0.8741195
1-3 -0.38497144 0.109933324 0.05694455 0.123609155 0.7552633 0.5615851 0.09242257 -0.06525163 0.116950616 -0.120515026 0.52694684 -0.98012686 0.096318565 -0.008335396 -0.22882062 0.17982332 0.78343016 0.33286884 -0.22174194 -0.055016104
0-8 -0.17253777 0.36185682 0.087668754 -0.028088214 0.6312506 0.34070405 0.17804042 -0.030283593 -0.1531174 0.1408545 0.32011116 -0.99676204 0.21909119 0.09845924 -0.5039848 0.38252416 0.9240366 0.24032791 -0.20519526 0.019883139
4-5 -0.004093772 -0.303884 0.43964383 0.79344434 -0.18294805 0.21439877 -0.046603985 0.22491208 0.48494732 -0.8337166 0.083114825 0.115130246 0.3902157 1.0363762 0.33997 0.095364414 0.061309963 -0.0050249454 -0.127699 -0.46468374
2-0 0.3202148 -0.37633255 -0.14227425 0.27315775 0.3775627 -0.47510096 0.26528993 1.0811142 -0.33094 -0.012690941 -0.093655206 -0.43805614 0.31101394 -0.12630652 -0.021502344 0.13530031 0.9643846 0.055493765 0.059040874 -0.2910954
6-5 0.05842784 -0.32497984 0.3888788 0.33582887 -0.031151269 -0.057853837 0.36169553 0.56709963 0.059363164 -0.7662366 -0.043040406 0.07252847 0.59390616 1.2486806 0.108158946 0.028420879 0.08221522 -0.056115136 -0.25056058 -0.25718537
9-8 0.014073684 0.38642058 0.17342725 0.07019131 0.6552278 0.7398582 0.19386192 -0.16730636 0.17739187 0.1548617 0.5813045 -0.7868927 0.41053772 -0.109320894 -0.26362416 0.20422974 0.8642629 0.21504688 -0.19022359 0.0069942847
1-5 0.19238827 -0.45595333 0.4570839 0.6351153 0.28012282 0.2775136 0.28061774 0.47682703 0.18030873 -0.7281308 0.12136929 0.119764626 0.45120212 0.972798 0.29625386 0.26627138 1.7427374e-06 -0.16311875 0.034417924 -0.2545165
8-5 -0.01026527 -0.4269994 0.3842099 0.6456692 -0.04996903 0.46436945 0.15685146 0.36259484 0.115264475 -0.7821177 0.08543299 0.08006452 0.69949657 0.9492776 0.40626144 0.1305945 -0.09602035 -0.07551237 -0.08154394 -0.2120197
4-1 -0.49740657 0.14635968 0.18230744 0.017284593 0.618931 0.7239813 0.37900317 0.08133695 0.0066274493 0.05234641 0.5396921 -0.7308111 -0.004241046 -0.00250601 -0.45699483 0.19527912 0.85078096 0.2978899 -0.06651033 0.013904473
5-1 -0.4796834 0.26305535 -0.020817012 -0.02614893 0.46690392 0.9537777 0.16403727 0.011807946 0.10044995 0.16762745 0.1688206 -0.71813816 0.2538775 0.0996172 -0.4483235 0.3567025 0.8709875 0.4919444 -0.22082527 0.010691379
9-1 -0.3080028 0.56124026 0.5370006 0.060033202 0.04206275 0.20442362 0.010894554 -0.07764508 0.008348327 -0.98045504 -0.7099185 0.063610725 -0.015618696 -0.62508494 0.22282618 -0.26862097 0.6967728 -0.19975471 -0.07060582 -0.56630874
1-0 -0.30593142 0.0665437 0.300106 0.27697846 -0.26190212 0.3808301 -1.0420678 0.08289911 0.21317998 -0.14846313 -0.39005902 -0.037478037 0.015583559 0.2989954 -0.28741163 -0.03856246 0.7848241 -0.1776226 0.12656422 -1.1322267
2-2 -0.13984512 0.063927606 -0.0474929 0.19974 -0.36215496 0.4410317 -0.8633232 0.1489684 0.40357807 -0.14664158 -0.61964726 -0.2636136 -0.17525499 0.45442644 -0.13214317 0.3711641 0.93758816 -0.25018352 0.19597097 -0.6918691
4-8 -0.14554657 0.41808954 0.9867023 -0.04656987 0.10815354 0.34442392 0.04346646 -0.049773358 -0.23726055 -0.7876411 -0.70344365 0.13368365 0.11609196 -0.63431257 -0.0625788 0.12665625 0.41253465 -0.24781126 0.24193025 -0.57611686
7-2 -0.10011337 0.19701864 0.14214922 0.49100542 -0.3154833 0.8378546 -1.0290508 0.37329194 0.21043788 0.09334526 -0.40936896 -0.19623072 -0.007300737 0.31720674 -0.07525322 -0.07913422 0.6603395 -0.45890984 0.13389213 -0.6710479
5-0 -0.19332077 0.2006943 0.042965177 0.33549434 -0.13722214 0.6101444 -0.92610085 -0.018515829 0.35871392 -0.1618058 -0.22180289 -0.17567678 -0.024368607 0.31299034 -0.3909526 -0.042047143 0.75284296 -0.196017 -0.04582941 -1.105695
8-1 -0.16939466 0.8460994 0.85873747 0.014813662 -0.004001325 0.31233576 0.070564166 -0.06171637 -0.10318225 -0.8710072 -0.55901444 -0.16340373 0.073955014 -0.477021 0.3445546 -0.30016035 0.52546495 -0.43494004 0.08680906 -0.29774147
9-2 -0.16147003 0.12840758 0.2496821 0.3360197 -0.091095656 0.21378092 -1.0443522 0.09702818 0.2920132 -0.21218647 -0.5522164 -0.30746162 -0.089880995 0.32599655 0.0077384566 0.42100638 0.68699116 -0.24434817 0.12629406 -0.9498577
5-8 -0.2179166 0.26207203 0.7920758 0.16107827 0.60365045 0.03654426 0.007324667 0.07083213 -0.5565184 -1.0388917 -0.39804512 0.03383087 -0.20104912 -0.34084243 0.12175005 -0.1837232 0.3779674 -0.37832195 0.36475673 -0.713618
7-8 -0.28909457 0.48645163 0.92535806 -0.07772743 -0.17689888 0.21666239 0.036088366 -0.32360676 -0.43046227 -0.8863571 -0.58895695 -0.1408689 0.21494721 -0.4388546 0.13880424 -0.34460306 0.5497773 -0.13618784 0.25231916 -0.5518414
1-4 0.17276557 -0.4611633 -0.077967964 0.276343 0.46798256 -0.28208253 0.44065407 0.84740865 -0.34105128 -0.04921598 0.32266858 -0.38274652 0.20830639 0.08973582 -0.40676412 0.023893302 0.7550643 0.19582385 0.21854614 -0.66176224
7-4 0.5640014 -0.5776857 -0.017905373 0.1738261 0.23586045 -0.09032914 0.44839492 0.9181648 -0.20770827 0.18218201 0.028759168 -0.26502582 0.22494863 -0.108553916 -0.024453375 0.16581441 0.9180649 -0.033951476 0.16960052 -0.4899433
6-4 0.35636592 -0.6027256 -0.16519858 0.6604582 0.4380576 -0.29421064 0.53359985 0.86708903 -0.1780062 -0.07858008 -0.021384018 -0.19050933 0.09800912 -0.05539729 -0.24803543 0.045220394 0.79387856 -0.020237567 0.03907042 -0.5438128
1-1 -0.28636402 0.5371306 0.78805304 0.16498286 0.06643877 0.09679948 -0.3871307 -0.015157758 -0.15445536 -1.1050143 -0.4637051 -0.3652205 0.0037824835 -0.5642137 0.40707257 -0.29023424 0.4305938 0.02260174 -0.018519672 -0.42641464
