64 20
7-3 -0.4399107 -0.18499082 0.27215135 0.043893024 -0.20567894 -0.039921112 0.78414005 0.12330889 -0.7059363 0.1429959 -0.31262323 -0.35710543 -0.1367851 -0.19065332 -0.105313554 0.17154215 0.35844812 -0.13953264 -0.11568516 -0.4416167
5-5 -0.42967018 -0.1969657 0.0410005 0.31610048 -0.42845955 0.09491197 0.8116455 0.29097646 -0.66255784 0.18010566 -0.1855124 -0.4841122 -0.059915733 0.02057965 -0.08592658 0.27887976 0.16977513 -0.10008157 -0.050969396 -0.28078163
3-3 0.09890786 0.21750844 0.91805506 0.69104826 -0.30074897 0.0021754731 -0.08780631 0.15985347 -0.19558717 -0.025083436 0.8932086 -0.15093537 0.08079721 -0.021506524 -0.053480808 -0.29962727 -0.20356317 0.19479778 0.071922705 -0.30627018
4-5 0.20466149 0.1915363 0.667948 0.7151891 -0.40002468 0.15962996 -0.22760348 0.066397816 -0.35449213 0.16587125 0.9032144 -0.24846083 0.22336315 -0.20022441 -0.15707962 -0.04701706 -0.10820319 0.025971124 -0.014358635 -0.5269522
1-6 -0.5635834 -0.21742028 0.30140686 0.046746787 -0.30798 0.16300905 0.7040129 0.42395037 -0.5689018 0.15114994 -0.1489182 -0.53255236 0.07010526 0.029263042 -0.346027 0.24375431 0.22771437 -0.1044494 -0.25663385 -0.017651783
3-7 -0.45172167 -0.27723673 0.26680058 0.186377 -0.36145467 0.20476907 0.6966982 0.34798342 -0.50764227 0.26009136 -0.22117382 -0.3936781 -0.042996876 -0.08005801 -0.09257862 0.36435768 0.40738344 -0.2463293 -0.13606675 -0.28542453
3-4 -0.7395452 0.7254234 0.6483374 -0.19495547 -0.030010814 0.033693276 -0.14796157 0.6455573 -0.24960679 0.18367258 0.59755284 -0.37714455 -0.04201792 -0.42043784 0.1325689 -0.47565535 -0.013968963 -0.11888657 -0.20584105 0.08010921
5-2 -0.24037544 -0.36221862 0.26949054 -0.39581382 0.662631 0.053412676 0.1252261 0.8173422 -0.16220301 -0.22404295 0.07947278 -0.3211224 0.6389771 -0.08966631 0.39654875 -0.037752092 -0.13237666 0.24071711 -0.34571514 -0.19796647
2-2 0.27847427 0.11425289 0.74694777 0.54486567 -0.24952243 0.03043702 -0.09238814 -0.053255748 -0.32929417 0.33696088 0.7999068 -0.26026875 0.19591267 0.15183654 -0.1627624 -0.33830756 -0.27474856 0.038169358 -0.069386266 -0.445459
6-2 0.1539256 0.16515206 0.89552826 0.80670345 -0.279101 -0.24188663 -0.24570528 0.10904443 -0.2727091 0.18820648 0.65931463 -0.05145388 0.16293822 -0.07080801 -0.24010496 -0.20564699 -0.30319038 -0.022872766 -0.26708084 -0.31499034
3-6 -0.12836286 -0.12605916 -0.081581295 -0.4832821 -0.27130654 0.20018783 0.36793813 0.408189 -0.6635271 0.43460625 0.25749284 0.17324597 -0.39765716 0.544676 0.10204923 -0.22635262 -0.018883355 0.103709064 -0.0057306644 -0.6368293
6-6 0.21934351 -0.3386484 -0.029014468 -0.68634975 -0.12743878 0.19441132 0.27728796 0.4276402 -0.5031208 0.17199354 0.1796326 0.051108524 -0.13079374 0.6698101 -0.08556887 -0.116351984 0.10549596 -0.0039085187 -0.05064993 -0.8773106
5-4 -0.024098877 -0.3227161 0.0025105136 -0.38226545 -0.15073873 0.33963746 0.057301387 0.65117204 -0.33826202 0.34158322 0.06759642 0.24250875 -0.41523927 0.4218596 0.029972045 0.061359845 -0.003667358 -0.15610233 -0.10608431 -0.89736545
7-4 0.0012129683 -0.5226705 0.07129046 -0.48428103 -0.46769476 0.25969654 0.25734463 0.53072107 -0.34351704 0.47640747 0.25593892 0.31061807 -0.316722 0.43822885 -0.0049981065 -0.16871347 0.19899257 -0.10579459 -0.2211574 -0.6044351
6-7 -0.08215822 -0.56051445 0.15500222 -0.44590026 0.6431155 -0.018103912 0.38376892 0.66602206 -0.21066566 -0.12028048 -0.120385274 -0.21242814 0.6979523 -0.25249925 0.40815854 -0.26856288 -0.19370805 0.26105487 -0.19848797 -0.4793016
0-7 0.24667709 0.24644722 0.9545695 0.46483183 -0.12983602 0.03410163 -0.066196375 -0.08100061 -0.53654855 -0.18926322 0.9990261 0.032066517 0.11501423 0.032765966 0.013183837 0.011851621 -0.32005608 0.06170609 -0.08771386 -0.3165012
1-1 0.07097608 -0.4302814 0.07897236 -0.34228992 -0.4476617 -0.046349164 0.30358776 0.33773047 -0.45499608 0.2831596 0.27101526 0.33369106 -0.470826 0.5759542 0.22450347 -0.2927169 0.2325985 0.030090299 0.013520075 -0.7098795
5-1 -0.9057284 0.6394529 0.32271677 -0.30397436 0.4177978 -0.05504234 0.16497406 0.6038711 0.080249555 -0.20303817 0.8405361 -0.36889282 0.1952492 -0.32975277 0.038754947 -0.5283241 -0.09517106 -0.17396359 -0.17864084 -0.17277095
5-7 0.21295337 0.10085892 0.8542284 0.7239426 -0.31913415 -0.13604593 -0.3158645 0.21554281 -0.49344155 -0.1258629 0.87413216 -0.20712328 -0.106896445 -0.042932216 -0.2979389 -0.032009363 -0.29752406 0.11028216 -0.17051677 -0.27768943
4-3 -0.029558871 -0.5097358 0.028886925 -0.28818333 -0.34621665 0.42397326 0.121041216 0.4610249 -0.4776049 0.43852586 0.06934379 0.036017086 -0.29847726 0.40827435 0.10514663 -0.35783723 -0.03118003 -0.085657835 0.20257796 -0.7903644
0-3 0.049301986 -0.45621374 0.10920441 -0.35859343 -0.30982426 0.31546172 0.14654481 0.49796405 -0.51047426 0.28566936 -0.10409083 0.00598515 -0.3553331 0.4700333 0.28525478 -0.21040581 -0.016187996 -0.23950943 0.2201941 -0.7199889
5-6 -0.04589482 -0.09239336 0.12369268 0.8450745 0.18508303 -0.72604704 0.03795221 0.9654768 -0.32574576 0.14353752 -0.18941881 0.016104417 0.2301364 -0.27050102 -0.03956391 -0.101549 -0.41326556 -0.11448743 -0.018725397 -0.14538541
2-7 -0.089541405 0.16963962 -0.028647467 0.6394283 0.08336877 -0.7295706 -0.102721535 1.1215758 -0.28021696 -0.2005661 -0.17196175 -0.09298563 0.5419961 -0.03346471 0.080979094 0.19400893 -0.49663472 -0.16378537 0.23172215 -0.23040268
4-6 -0.14047697 -0.040870473 0.31244725 0.27427378 -0.62345886 -0.3265688 0.082164094 0.0904806 -0.08625704 -0.13697967 0.6994398 0.03814733 0.3319987 0.34168 -0.01372734 -0.49979013 0.12876114 -0.31018037 -0.8178758 -0.17661294
2-1 -0.05612477 -0.6566664 0.07524816 -0.2910668 -0.14845943 0.07320183 -0.0058826194 0.36777487 -0.43870366 0.3738793 0.33716485 0.09418362 -0.49227467 0.55246097 0.12060995 -0.27137765 0.108374864 0.02690716 0.16351046 -0.7738655
6-0 -0.9237316 0.6552034 0.28859097 0.007700098 0.0839824 -0.06119781 0.07972327 0.78169185 -0.13141325 -0.019914957 0.6602586 -0.17612484 0.07752569 -0.6547297 0.23491193 -0.52574426 -0.2990824 -0.12591201 -0.41432464 0.02624645
2-5 0.0042046215 -0.37375668 0.30230096 -0.40028515 0.46463683 -0.115075104 0.53368264 0.7815268 0.08071863 0.09303919 -0.0764297 -0.21402074 0.84669113 -0.17005382 0.2455732 0.1211293 0.10427116 0.39576632 -0.27601108 -0.37113807
1-4 -0.2530555 0.0740618 0.19722416 0.46425793 0.07521647 -0.8842761 -0.03068927 0.9160171 -0.27611962 -0.26919383 -0.25995865 -0.046741642 0.44736227 -0.24862538 -0.08813363 -0.044005007 -0.537073 0.02957404 0.21944712 -0.22492683
1-5 0.042426355 -0.26514372 0.12553489 -0.3530192 0.535333 -0.3101265 0.54561806 0.8207593 -0.031036401 0.11942686 -0.1520221 -0.50367135 0.65013856 -0.41704598 0.41971722 -0.058499407 -0.17610833 0.32811663 -0.39262858 -0.35262084
7-5 0.07937027 -0.22701718 0.089653775 -0.021431422 -0.62181604 -0.32961813 -0.041964192 -0.0656135 -0.31551427 -0.064021826 0.6414884 0.007961906 0.2700377 0.1815038 -0.03197657 -0.47721404 0.07838551 -0.78369844 -0.5508549 -0.42333442
5-3 0.047350574 0.17914148 0.2968633 -0.13351007 0.563617 -0.2290329 0.038986944 0.3920825 -0.13535371 0.2974484 -0.07122283 -0.26950884 0.39871624 0.960643 0.22135685 0.515324 0.22203915 -0.29465425 -0.013706304 -0.81211805
4-1 -0.1044134 -0.37217167 0.17478463 -0.6097191 0.44417432 -0.14946063 0.26682988 0.8792418 -0.14375849 -0.20043182 -0.23271668 -0.42643207 0.6680676 -0.29645237 0.16149068 -0.11932698 -0.37695935 0.3110928 -0.1924353 -0.4337521
7-1 -0.014438397 -0.20767128 0.2002055 -0.5676555 0.2880826 -0.3629445 0.21058688 0.790174 -0.33224273 -0.07022486 -0.33205572 -0.22401139 0.7980952 -0.47970665 0.16559178 0.017147798 -0.008228417 0.45374078 -0.18139763 -0.4273735
2-6 -0.07738948 0.014446589 0.25529525 0.14059797 0.45173374 -0.34138685 -0.2093037 0.37977028 -0.45701176 -0.11230914 -0.28493148 -0.26418486 0.36527896 0.7001327 0.49401954 0.7646418 -0.05971364 -0.2200939 -0.04510938 -0.7190144
3-2 -0.16630533 -0.3303843 0.18418948 0.20392661 -0.6078886 -0.24249361 0.06171032 -0.16323066 -0.23614818 -0.3335612 0.7249883 0.22829214 0.5048112 0.07728281 -0.10116545 -0.55488634 -0.014237763 -0.5189789 -0.44432396 -0.46223602
6-1 0.045193896 0.26018178 0.13982624 0.7274946 0.19157825 -0.8698006 -0.03459031 1.1869899 -0.13824408 -0.26081538 0.25131062 -0.1623224 0.14137149 -0.19835462 -0.0012152842 -0.0036133504 -0.283101 -0.061480787 -0.0220561 -0.060240664
7-7 -0.1680749 0.0029564255 0.17836726 -0.04971553 0.3454047 -0.1553748 -0.32110417 0.19682637 -0.36093628 0.19452552 -0.013517961 0.003942037 0.46252277 0.562934 0.45394614 0.9422576 -0.072099514 -0.4522182 0.11333275 -0.9540992
0-4 -0.5197036 -0.32345268 0.1945859 0.24205722 -0.007842574 -0.040918414 0.7292849 0.28321636 -0.47119278 0.5282517 -0.044156015 -0.07452866 -0.060513373 0.015850486 -0.084524795 0.48857802 0.4055893 -0.19687924 0.10757626 -0.36869153
6-4 -0.22949587 -0.26159158 0.17551179 0.33145052 -0.13590278 0.09469632 0.6668473 0.37150952 -0.4845022 0.2315937 0.083262525 -0.21647233 0.05058136 -0.028926287 -0.26107773 0.51208353 0.473496 -0.5112525 -0.075735874 -0.26598346
1-3 -0.22568467 -0.31135646 0.1292808 -0.5431384 -0.6421662 -0.51332784 0.14351834 0.39871955 0.16514629 -0.08098234 0.34395903 0.13970172 0.26111814 -0.023740314 0.6386661 0.010121557 -0.6817769 -0.30629268 0.6510537 -0.41613686
2-4 -0.15285742 -0.5784044 0.29818505 0.03750382 0.031519566 -0.00896766 0.82909286 0.09294096 -0.6452771 0.03828131 0.13064449 -0.27974588 0.05882935 -0.28219175 -0.27901563 0.30995557 0.25924057 -0.30504408 -0.23961179 -0.20443201
6-3 -0.02719672 0.058732316 0.016653385 0.3498363 -0.7815106 -0.33835894 -0.091689624 0.10262901 -0.3490283 -0.17870018 0.6793707 -0.040386077 0.3879489 0.13471673 -0.14476733 -0.06999499 0.25820196 -0.45297924 -0.5644844 -0.38309243
2-3 0.060923316 -0.22095938 0.24269715 0.28856766 -0.8102643 -0.13027605 0.047014806 0.049373023 -0.112589024 -0.23068607 0.69022167 -0.05396842 0.41853306 0.055985596 -0.046740443 -0.15601334 0.36907983 -0.32644576 -0.5896605 -0.44426602
1-0 0.1550167 -0.17265527 0.27531776 0.17648798 -0.711795 -0.14213678 0.08367701 0.08804364 -0.20741582 -0.11588646 0.5952647 0.3632272 0.3272716 0.11356855 -0.14107975 -0.41304773 0.13585253 -0.717189 -0.577751 -0.43994623
3-0 -0.09799295 -0.48708832 0.07251566 -0.4654677 0.37959406 -0.22025067 0.3864384 0.70810074 -0.015194036 -0.40188175 -0.057771254 -0.39416447 0.6064916 -0.39536518 0.52791435 -0.10049772 -0.09895842 0.41668695 -0.1908076 -0.60520226
7-6 -0.41457295 -0.6843077 0.24907812 -0.4019315 -0.3569457 -0.55029047 -0.14399268 0.27377412 0.28711903 -0.15619405 0.3102988 0.094813734 0.40162814 0.28536993 0.13441703 -0.08950181 -0.37934238 -0.55294156 0.5752469 -0.53392774
4-4 -0.34657356 -0.43835846 0.3473674 0.27542755 0.0002993991 0.12737116 0.66749805 0.21294414 -0.5398376 0.20242997 0.16648972 -0.28680944 -0.27481145 -0.06477023 -0.34387398 0.37967652 0.20652598 -0.18434283 -0.15468362 -0.33910903
0-0 -0.05986473 -0.38200286 0.085061796 -0.31839758 0.50408286 -0.35202104 0.36886767 0.7230433 -0.23941971 -0.29408857 -0.0901951 -0.41397053 0.67886347 -0.24548802 0.422652 -0.11871574 -0.010287686 0.6561251 -0.14053714 -0.50102335
3-5 -0.1645552 0.47793472 0.8733037 -0.5020257 -0.1837511 -0.18525872 0.20388551 0.19837491 -0.4649882 0.16271868 0.3279335 0.38812274 -0.33591855 -0.16695331 0.711401 -0.100449145 0.4587557 -0.17222552 0.14241524 -0.2299178
1-7 -1.0042039 0.41699958 0.4496661 0.037509773 0.14185993 -0.016365016 0.13555278 0.69825876 -0.06628573 0.07867903 0.5703771 -0.5751327 -0.1058188 -0.39002845 0.47332445 -0.5326489 0.17704526 -0.10190005 -0.2621315 0.15822792
0-1 0.23415834 0.06616171 0.09948333 0.39411607 0.029729625 -0.7054609 0.102089055 1.2053587 -0.119431525 -0.2884745 -0.25193715 -0.13299291 0.20065339 -0.32401124 0.07889634 0.0073364913 -0.60848486 -0.2194525 0.15395696 -0.2924251
4-7 -0.82036316 0.5210924 0.33121663 -0.018031973 0.012551648 -0.055315305 -0.11021089 0.67743325 -0.10215831 -0.2199515 0.7612028 -0.28883773 0.19257173 -0.22477001 0.3822095 -0.6587477 0.11200688 -0.07785276 -0.34259894 0.039305013
3-1 -0.16922836 -0.67085123 0.17318273 -0.7488438 -0.2963838 -0.8040995 0.07629302 0.3982879 0.3047493 -0.13249132 0.3792762 -0.28786635 0.2532833 0.07370867 0.08707947 -0.21592432 -0.49675077 -0.5331234 0.27280042 -0.28583714
0-6 -0.47004947 0.26572207 1.1947911 -0.531271 -0.052613854 -0.16086222 -0.10229762 -0.025529934 -0.53266823 0.11153072 0.31544378 0.48890567 0.21505417 0.03210525 0.1812653 0.054411657 0.38970283 0.13342887 0.3626903 -0.2391914
0-5 -0.19251107 0.30360782 0.42745394 -0.17780691 0.15877071 -0.1770268 0.1238248 0.074426495 -0.2651733 0.24650499 -0.036664937 0.08302206 0.3281361 0.59236044 0.348815 0.92270446 -0.106020704 -0.24836044 0.002758708 -0.8147565
6-5 -0.13866583 0.012950429 0.2761507 0.017285766 0.37109253 -0.13649306 0.18007606 0.17205364 -0.15799253 0.34610343 -0.19804071 0.10370328 0.2976974 0.76379216 0.32135648 0.7304676 -0.12144136 -0.22034888 -0.31960464 -0.97344285
4-0 -0.116262585 0.16131093 0.03428613 0.6327851 0.1747951 -0.768235 0.25315842 1.0558811 -0.071986124 -0.14761332 -0.16324538 0.023509502 0.39677083 -0.09723976 0.06368494 -0.077695064 -0.65023845 0.07611157 0.04263082 -0.31786612
7-0 -0.08219946 0.20189264 0.122213796 0.5738671 0.18362817 -0.7819521 0.2673557 0.97760737 -0.35692048 -0.18769106 -0.2514351 0.043159965 0.37133133 -0.12644334 0.1409595 -0.087970085 -0.7395797 0.021750856 0.0153014725 -0.15211426
0-2 -0.33758718 -0.5212937 -0.086842045 -0.35071683 -0.472455 -0.8039903 -0.07079643 0.38137814 0.13030037 0.20163889 0.17270678 -0.09507984 -0.07281183 -0.14062524 0.3254038 -0.06034779 -0.6365721 -0.2566793 0.3689588 -0.6285382
4-2 -0.26461995 -0.7273642 0.08503436 -0.60988945 -0.37195244 -0.7554695 0.061030567 0.361331 0.35181907 -0.048775487 0.34486607 -0.20656727 -0.10383694 -0.15187491 0.29353315 0.0051440177 -0.52190626 -0.25946438 0.23292145 -0.5929675
5-0 -0.58287114 -0.4926908 0.2949767 -0.5711152 -0.51602554 -0.5348098 -0.10821133 0.5191267 0.5151417 0.043784797 0.08979726 -0.22104655 0.18207867 0.08317647 0.5052413 -0.3089342 -0.6481406 -0.38322532 0.21229953 -0.3187092
2-0 -0.22699037 -0.62814116 0.3441365 -0.6214854 -0.6292925 -0.4146193 0.056121655 0.423389 0.3621729 0.00021528716 0.024540417 -0.09445908 0.07206312 -0.025653994 0.21329919 -0.19454786 -0.71609986 -0.4588426 0.45559037 -0.610674
1-2 -0.29695007 0.18635751 0.6549298 -0.647503 -0.38661328 -0.38114867 -0.24251728 -0.0071378355 -0.67728966 0.56555843 0.2489258 0.31405172 -0.043733213 -0.108426064 0.61839986 -0.15647334 -0.011429318 -0.15278779 0.34062612 -0.20336172
7-2 -0.13002919 0.17472716 0.76456505 -0.5319364 -0.095978476 -0.16855606 0.41294354 0.24128069 -0.7577605 0.3757123 0.3193076 0.19725329 0.28995022 -0.03225328 0.6435831 0.23698904 0.2288066 0.21222213 0.017916413 0.33849034
