2000 20
46-8 0.027132666 0.6162386 -0.2471123 -0.94186074 -1.2716807 -0.19827583 -0.04179623 -0.118261315 -0.2961647 0.98111606 1.111653 -0.41567346 -0.648871 -0.37482846 0.19960254 -0.3235845 0.6272758 -1.223665 -0.5103441 -1.2709033
26-5 1.0744853 0.510523 -0.5868838 0.87422323 -0.73945594 0.76675206 -0.22894084 0.40938446 0.26981577 0.60414404 0.26959002 0.5835495 0.01662887 -0.21453318 -0.057229597 0.66899025 0.17566241 -2.1195223 0.51082236 -0.52562034
41-19 0.3069256 0.7545756 0.6280757 -0.3694736 -0.01604032 0.42907983 0.48649782 1.0144906 0.07682271 0.35247153 1.2042421 0.5157091 0.8057599 0.6376955 -0.111091286 -0.14242356 0.30957058 -1.4577327 -1.5072683 0.24108213
65-4 -0.32468465 -0.1628688 -0.03827323 -0.2587622 -0.57074845 0.5690583 0.43793952 1.4371086 -1.0704526 0.48071426 -0.017175494 -1.0213151 0.18371439 0.27635473 -1.2607046 0.67526275 0.7027778 -1.3217095 -0.6177131 -0.031481355
27-1 -0.9685895 0.1331029 -0.052081287 -0.3010976 0.2479595 -0.5739674 -0.11001618 0.8230735 0.2805865 0.771162 0.19328196 -0.48036987 -0.14563239 0.28093994 0.852989 -0.465192 0.0049066674 -2.420944 0.24719489 -0.17259473
17-10 0.43034756 0.24000973 -1.3959924 -0.53339547 0.6424564 -0.45225075 0.09544713 0.096003115 0.1173989 -0.309646 0.45343435 -0.10852403 0.32734206 0.36387205 -0.5182991 -0.41960528 1.277394 -1.6304713 -0.56504655 -1.1920258
4-19 0.9365764 0.5261556 -0.7267379 0.64684093 -0.83316857 0.8723578 -0.2587514 0.34398213 0.126825 0.66381735 0.5758741 0.38722217 -0.163825 -0.63777953 -0.19247526 0.27714872 0.19369593 -2.1354382 0.53362477 -0.46145716
57-13 0.54302853 -0.050489657 -1.3707701 -0.458621 0.71355224 -0.775132 0.014098119 0.3308292 0.013324686 -0.40860206 0.34682962 -0.06300879 0.31326085 0.5331105 -0.4591866 -0.52527946 0.95876604 -1.8260249 -0.59186095 -0.8662245
96-19 -0.9014408 0.017882504 -0.043605052 -0.118837126 0.34442317 -0.40742907 0.18275633 0.8377824 0.25599355 0.49329898 0.039539035 -0.5799434 0.13987765 0.33705613 0.6404726 -0.5014295 -0.50229055 -2.4571815 0.24765003 -0.2856079
41-8 0.80450064 0.59246033 -0.68068194 0.77242893 -0.70958114 0.53446406 -0.36737227 0.440784 0.0041680806 0.5004038 0.41692477 0.30282328 0.30627295 -0.5319394 0.024557382 0.3075474 0.0058553237 -2.278837 0.7986578 -0.11432188
71-16 0.6437744 -0.109005995 -1.2926693 -0.35916722 0.77096325 -0.6301073 0.25808582 0.2933361 -0.1435697 -0.49851406 0.3030461 -0.015986957 0.38698724 0.3554871 -0.57523733 -0.5971862 1.0080516 -1.7640424 -0.65743923 -1.021569
29-1 -0.79714066 -0.26336393 -0.37844267 0.19067888 -0.5258605 -0.08444381 -0.51142555 -0.39102235 -1.3069429 0.31745848 0.8517734 0.3806055 0.19308703 0.056153126 -0.3921784 0.36966693 -0.6938361 -1.6544119 -1.3057302 -0.5461276
10-19 -0.2928643 -0.16818862 -0.11759145 0.014945588 -0.69842046 0.21225794 0.58763725 1.451814 -1.1482676 0.6237675 -0.37189338 -0.9301184 0.09344449 0.15351136 -1.2765019 0.5333261 0.5632719 -1.3286865 -0.6746435 -0.4506471
18-3 -0.8962916 0.37616795 0.19705851 -0.32073843 0.23339124 -0.45215148 0.041836042 0.945863 0.24766062 0.5045216 0.16861299 -0.45772272 0.47365233 0.2967689 0.64897 -0.3525923 -0.47624642 -2.474123 0.2592441 0.15827335
12-4 1.0279735 0.4844974 -0.7894773 0.96064967 -0.68080163 0.8838108 -0.1942073 0.6527044 -0.052767366 0.73748356 0.3361851 0.19517717 -0.006677507 -0.21719177 -0.25781694 0.51653683 0.137406 -1.9988986 0.40728548 -0.3120352
10-5 0.07722913 0.7421818 -0.101378374 -1.2807274 -1.0017196 0.07247015 -0.11951625 0.0042888937 -0.62516797 1.0399324 0.65751815 -0.11322336 -0.6136198 -0.15178734 0.33600286 -0.34438074 1.0213681 -1.1730415 -0.26947895 -1.3330183
4-4 0.31292677 -0.21797815 -1.5187906 -0.5782591 0.87808955 -0.60278237 0.1995032 0.22595665 0.18281874 -0.09357631 0.2967502 -0.22802322 0.62653065 0.46562263 -0.4342641 -0.45951056 0.9663475 -1.7942988 -0.5124162 -0.8468798
48-4 -0.38080072 0.8361516 0.120628685 -0.67040974 1.2587993 0.7698126 -0.612842 0.7303827 -0.3042202 0.041272458 0.70016617 -0.03448761 -0.006345801 -0.1965736 -0.6042443 0.6887734 0.31905988 -1.1969299 0.29831865 -1.6245241
84-18 0.9062328 0.3723307 -0.91101396 0.6781388 -0.5483679 0.9656886 -0.31323522 0.23994331 0.18779185 0.16934861 0.56731886 0.40906897 -0.033257253 -0.40335524 -0.22773062 0.37709245 0.33832413 -2.2670524 0.55893457 -0.35543647
8-11 -0.87659806 0.08272608 0.14942335 -0.18665496 0.26784974 -0.37137005 0.11726947 0.70296097 0.38523635 0.61340076 -0.08127662 -0.45307142 0.013703881 0.38998368 0.5744962 -0.31193757 -0.49458212 -2.5228064 0.3054133 -0.25204942
35-14 -0.09015726 -0.32198548 -0.25654513 -0.66918254 -0.3723256 0.8657164 -0.6312112 0.56076944 -1.2599742 0.20535137 -0.3373025 0.71216255 1.2482823 0.5146959 0.8509884 -0.2533402 0.34112805 -1.3181934 -0.19434482 -0.87094504
4-6 -0.18719642 0.6114679 0.30032128 -0.51497287 -0.5755665 -1.0816482 0.20398481 0.690284 -0.85108495 -0.14951879 0.58474004 -0.38506022 1.7375125 -0.4104453 0.048587076 0.27075955 0.100514956 -1.5217228 0.75549096 -0.438917
0-3 0.8700073 0.16246013 0.19553055 0.7241405 0.19472328 -0.33193874 0.29394904 1.0810982 -0.28256133 0.8982925 0.8649616 0.022957107 0.3091746 1.027392 0.7892994 0.8415557 0.30117857 -0.9688516 -0.6124309 -1.1635064
48-2 0.9606796 0.38988194 -0.90253735 0.83438635 -0.49782917 0.80302376 -0.36046502 0.46431738 0.13025798 0.38984454 0.62178427 0.57113975 -0.044518556 -0.5854214 -0.18841258 0.1847269 0.44176045 -2.1750727 0.5000679 -0.38399306
57-3 -1.003976 -0.15266307 -0.6100469 -0.32077223 -0.84151536 0.15024525 0.9199394 0.9340049 -0.352107 -0.8430761 0.73736346 0.9641465 0.49371454 -0.26924112 0.45012018 0.815646 0.049743447 -1.0888833 -0.36889878 -1.0770237
59-3 0.76429653 -0.53618085 0.21257804 -0.83607286 -0.2563103 -0.9852827 -0.5735327 1.1030608 -0.5108791 -0.8190996 0.39775044 0.1445732 -0.7185493 0.3099949 -0.39583114 0.2513643 -0.72744924 -1.8666279 -0.35104367 -0.5765554
99-12 0.07055927 0.6436151 0.44122472 -0.7234539 -0.74651164 -0.9070914 -0.19816233 0.2904329 -1.2379354 0.068462916 0.60881525 -0.24723144 1.6839468 -0.35149607 0.13092078 0.116970114 0.28854516 -1.3504328 0.6182559 -0.62763935
72-5 -0.06942638 -0.29856157 0.5645288 -0.4415996 -0.77108145 -0.5913426 -0.20578177 -0.40617153 0.7317688 0.28509223 -0.30702975 0.43257073 0.37694085 0.7439746 -0.86686885 0.9498992 0.50011307 -1.9851986 -0.40015015 -0.9987096
99-14 1.0552925 0.44245076 -0.042256024 0.62377447 -0.27206865 -0.30742705 0.41351992 0.7044596 -0.45476797 1.010432 0.83455527 -0.087132595 0.032369427 0.95954233 0.8247165 0.9774476 0.23707196 -1.0703392 -0.44676748 -1.2507823
42-15 0.65057784 0.20082575 -0.12371974 0.6127459 0.036388226 -0.4313382 0.33934158 0.983191 -0.14777237 0.72537076 0.7800423 -0.31662762 0.2915838 1.1387519 1.0121677 0.8397739 -0.19970706 -1.0684716 -0.49400413 -1.3582484
10-16 0.83280253 0.3165902 -0.46122777 0.8604523 -0.71923107 0.7733043 -0.47913095 0.43453258 0.23824686 0.56912935 0.26583886 0.66252357 0.0073364745 -0.64193976 -0.23833205 0.47109488 0.3782492 -2.1734526 0.5716588 -0.41149178
5-16 0.10197689 0.5223192 0.07567377 -0.4170371 -0.31280026 -1.2197978 0.07030503 0.5461127 -0.9149472 -0.16895956 0.60871214 -0.45660725 1.8076266 -0.27693617 -0.015264579 0.120145924 0.35062543 -1.5096575 0.6574032 -0.46674627
89-3 0.7309973 0.13834444 0.23594126 0.67699355 0.21688566 -0.34110808 0.42318502 1.0063727 -0.30622804 0.8251604 0.86509037 0.103963286 0.2957315 1.0324619 0.8647149 0.9721014 0.26285526 -0.9997229 -0.6609002 -1.1214683
39-14 1.1143885 0.48189142 -0.7431439 0.76807016 -0.7151979 0.6360328 -0.4234767 0.6104126 0.044389214 0.41849604 0.48527455 0.5825809 -0.13855183 -0.2701402 -0.122969665 0.4224963 -0.09562363 -2.1422982 0.48340613 -0.36364862
12-13 0.24174002 0.53197604 0.8102548 -0.43277246 0.06275768 0.21267329 0.13136797 1.1963365 0.16139261 0.05837278 1.1322467 0.67746395 0.6674875 0.23502043 -0.31033295 -0.25584045 0.27030239 -1.5947664 -1.5728536 0.3760564
76-8 0.9722708 0.16529879 0.2695863 0.7176264 0.10770197 -0.6230586 0.74497104 0.72660303 -0.71348786 0.7168364 0.58289033 -0.21779369 0.48806182 0.86564404 0.6877712 0.7600173 -0.09233083 -1.0173556 -0.23212944 -1.5001303
26-3 -0.24677645 1.1847285 -0.046205778 -0.627099 1.0190288 0.63024783 -0.60278964 0.8065417 -0.081832714 0.14143571 0.43216288 -0.09682123 0.25200105 0.17303666 -0.4244588 0.75217336 -0.0684083 -1.0252682 0.09801854 -2.0013013
20-1 0.13993289 -1.04735 -0.7289492 -1.4005157 0.54962593 0.24687861 0.052468684 0.8642418 0.22898006 1.3139236 0.45782936 0.2494875 0.7375358 -0.21740508 -0.10329745 0.6509016 -0.5792168 -1.2415373 -0.0031709804 -0.7143521
57-12 0.9490445 -0.3138323 -0.28981593 -0.9267372 0.0074763913 -0.73777586 -0.6916492 1.1327016 -0.62904716 -0.93883115 0.6679839 0.28903365 -0.60841626 0.17916642 -0.5787993 0.26593977 -0.5059186 -1.5381365 -0.5814062 -0.82451177
40-10 0.40178305 -0.57140106 0.5369425 -0.5208056 -0.24690636 1.2106481 -0.09001253 -0.12429019 -0.5220371 -0.47134504 1.2893358 -1.2061011 0.5201237 0.34585068 -0.04916597 0.56512415 0.45218778 -1.6017005 0.39982995 -0.54976904
61-15 0.49786916 0.5697627 -0.8493449 0.8766081 -0.61201185 0.77190083 -0.35318282 0.3355059 0.071692295 0.5568189 0.451032 0.48298606 -0.025117336 -0.4335427 -0.12091571 0.36404258 -0.17464238 -2.30101 0.48338726 -0.20468114
33-19 0.55123407 -0.15989326 -1.2711416 -0.25467944 0.77155036 -0.5325937 0.44158307 0.14752978 -0.010461352 -0.35992852 0.35012516 -0.15711947 0.58853495 0.30152148 -0.53450143 -0.5283106 1.1257268 -1.7295505 -0.6229754 -1.0369638
99-9 -0.36851278 0.050117616 -0.08653687 -0.24266744 -0.50554204 0.3088503 0.1904235 1.4215536 -0.83952206 0.537257 -0.5433296 -0.744138 0.082831934 0.29364532 -1.5461951 0.975018 0.57422125 -1.3256677 -0.57479316 -0.4005174
21-2 0.76365805 -0.39516386 -0.10090822 -0.7361973 -0.5316068 -0.7346032 -0.69863087 1.0747472 -0.5934561 -0.92265797 0.78179055 0.15438654 -0.5521132 0.072247446 -0.52675277 0.145051 -0.7710449 -1.4455998 -0.8250484 -0.8605345
83-18 0.27427056 0.13660492 -1.2743472 -0.44431493 0.90441674 -0.5990792 -0.015090775 0.26040712 0.11891063 -0.3752373 0.31390488 -0.12686756 0.47406173 0.3555726 -0.5056208 -0.45885795 1.0199945 -1.7416981 -0.41919243 -0.95087487
39-1 -0.22094233 -0.06342338 0.06968744 -0.15384713 -0.79306287 0.24835695 0.38375452 1.447242 -0.8573729 0.59806335 -0.37899375 -0.7228224 0.2685104 0.33344108 -1.3792235 0.6942513 0.60473937 -1.3321929 -0.75603366 -0.13860579
73-13 0.42569193 -0.15661603 -1.5112696 -0.45183522 0.5089256 -0.5785359 0.32103813 0.30274737 0.018254856 -0.74489146 0.5735515 0.08350663 0.46696153 0.38432783 -0.4772315 -0.24801989 1.1166644 -1.6550277 -0.5745232 -0.89412963
3-10 0.1748693 0.566487 0.41438314 -0.64466196 -0.71543425 -1.1323357 0.05032235 0.66025144 -1.057008 -0.4452402 0.7329876 -0.25205535 1.5376465 -0.44849834 -0.13981129 0.3996925 0.014518042 -1.358359 0.569647 -0.5139241
90-9 -0.6733429 0.022655198 -0.42731735 0.46854484 -0.4110032 0.09716533 -0.36881575 -0.6015659 -0.99487776 0.44361672 0.9032658 0.30902967 0.12719636 -0.4546811 -0.36380368 0.7327587 -0.7906146 -1.876114 -1.2351433 -0.4606086
33-3 -0.39939287 1.2132713 -0.2159493 -0.4902017 0.8997636 0.84244305 -0.5166406 0.8930112 -0.34427372 0.17409012 0.24877436 -0.033262994 0.07589576 -0.28020164 -0.9912606 0.79436797 0.16243345 -1.235239 0.22822517 -1.5446
48-5 0.24956459 -0.508043 0.5265675 -0.5091525 0.35900113 1.3857442 0.21012366 -0.12741134 -0.7430509 -0.36892936 1.0614539 -0.8651399 0.081517555 0.2743736 -0.1503637 0.55239207 0.37791854 -1.6681931 0.49621773 -0.7155881
73-5 0.52280366 -0.57622504 0.29015505 -0.26874825 -0.124010295 1.4340602 -0.14496842 -0.060815573 -0.29692405 -0.41740543 1.3167219 -0.9783705 0.18238679 0.355132 -0.03653344 0.7035203 0.44177154 -1.7105957 0.37599868 -0.53440475
82-1 0.027948638 0.44308612 0.39930966 -0.5033778 -0.6841959 -0.70912534 0.22479494 0.44781905 -1.0728874 -0.34195688 0.88306564 -0.39297217 1.7413507 -0.4396401 -0.10241516 0.43844536 0.28953284 -1.4068552 0.7945473 -0.42256466
16-11 1.0512393 0.22478272 0.08533899 0.4227913 -0.08886833 -0.7762232 0.31931937 0.896766 -0.63601995 0.51790744 0.7480042 -0.14174972 0.40339085 1.0422727 0.8446779 1.07476 -0.07653839 -1.0207207 -0.3165099 -1.2503008
30-3 -0.3059217 -0.92792225 0.66168284 0.5285981 0.42130995 -0.26077467 -0.7390606 1.0191723 -0.4596291 0.5110301 0.8240033 0.6220324 0.31259546 -0.8685397 0.2356674 -0.14963666 1.1661594 -1.422619 -0.3366209 -0.90550405
76-12 0.67306983 -0.079453535 -1.4146249 -0.23337443 0.6081926 -0.1227348 0.08574031 -0.08968835 0.038906932 -0.5278786 0.582493 -0.18269755 0.39993522 0.4304308 -0.5351127 -0.22560774 1.269258 -1.8917135 -0.39403176 -0.741549
69-11 0.8010431 0.20673512 0.06992576 0.5355565 0.098540895 -0.32071993 0.5054681 0.91929024 -0.50389004 0.78315485 0.45154947 -0.3357123 0.1870192 1.0160517 0.8054699 1.176051 0.16652659 -1.020393 -0.7470131 -1.1864071
75-19 1.1325859 0.16991314 0.019123042 0.4503513 0.09064845 -0.48758847 0.3561335 0.89278895 -0.5301916 0.62820727 0.77830255 -0.04284738 0.05360728 1.1698723 0.82010907 1.0548404 -0.116341755 -1.1473244 -0.5419014 -1.3364081
43-4 0.6773455 0.5319461 -0.93973684 0.83132446 -0.7319189 1.0282781 -0.47850367 0.20218022 -0.29082495 0.47703803 0.42561916 0.6924488 0.14245023 -0.45087957 -0.0688999 0.2750492 0.01507949 -2.165184 0.37263498 -0.4329532
73-19 -0.36575982 1.3882643 0.18662113 -0.8628913 0.9796538 0.8389802 -0.44198334 0.86586154 -0.06820201 0.06335637 0.60345846 0.17919706 0.2765132 -0.11332744 -0.7538587 0.5630047 0.017198646 -1.219283 0.006664886 -1.4782912
36-7 0.45242223 -1.2864983 -0.95561385 -1.3461148 0.2995678 0.22988819 0.08851011 0.5736843 -0.010875518 1.1796359 0.4331257 0.47557446 0.9064373 -0.20952433 -0.04492732 0.45654476 -0.17509457 -1.191288 -0.21427189 -0.6862766
3-18 0.95670164 0.3001958 -0.59008914 0.79830164 -0.5819126 1.1004673 -0.04578596 0.22246298 -0.069968596 0.4190886 0.45967594 0.34585133 -0.015011126 -0.5276493 -0.2407033 0.089024045 -0.0134796165 -2.265618 0.7113472 -0.5030269
52-17 0.58116865 0.21053536 -1.392987 -0.5559817 0.79099196 -0.47279695 0.036341332 0.30060548 -0.0013178901 -0.5580328 0.5200588 0.048845746 0.26466915 0.4422436 -0.6667518 -0.32032564 1.0188082 -1.6591527 -0.54532385 -1.066132
55-5 0.50949967 -0.06689636 -1.1134467 -0.4245962 0.73870176 -0.28337926 0.1567817 0.02972338 0.107063115 -0.5411946 0.7198291 -0.0858622 0.7125731 0.6428261 -0.60085684 -0.43263796 1.3224155 -1.7891147 -0.6574427 -0.7276291
13-11 0.8989587 0.06437855 0.15982287 0.5346321 0.03873274 -0.11679159 0.35535508 0.7108325 -0.18529677 0.6146754 0.90757775 -0.53229773 0.35081494 1.2310702 0.82190055 0.9474905 0.12732877 -0.98947126 -0.52999604 -1.4242234
73-7 -0.21640834 -0.3274481 -0.117839366 -0.2957918 -0.61480755 1.1252248 -0.49979475 0.46879464 -1.1298779 -0.02682943 -0.42959416 0.5410586 1.1271347 0.45263353 0.7971812 -0.58245486 0.18762605 -1.4050065 -0.4353212 -1.2956867
47-17 0.80205834 0.8522659 -0.723681 0.5288612 -0.6032315 0.9434419 -0.47557464 0.3944584 0.1165483 0.55649745 0.5244771 0.4201023 -0.22057794 -0.5400496 -0.33660898 0.3451832 0.095368214 -1.9681188 0.5715319 -0.586989
46-17 -0.18219861 -0.24319534 -0.2804892 -0.24166624 -0.8686068 0.26052403 0.0013550855 1.6616379 -1.326237 0.38518053 -0.4116085 -0.7211629 0.06400428 0.3979562 -1.1298567 0.49113843 0.44956467 -1.2168103 -0.73870313 -0.2899658
39-15 0.8308803 0.30016926 -0.035763945 0.6950485 0.0056543085 -0.38785398 0.38512444 0.9914888 -0.20249066 0.83128697 0.56291753 -0.122358784 0.11520948 1.2258403 0.9345177 0.92681235 -0.043242022 -1.3221577 -0.24053174 -1.1429598
97-9 0.7870855 0.26732326 -0.77023774 0.8210576 -0.5539879 0.894892 -0.701845 0.5020085 -0.12330137 0.5289185 0.39410922 0.67938054 0.11283287 -0.5824249 0.02251484 0.27398643 0.36352065 -2.0866542 0.53158045 -0.35807103
58-7 0.5020346 -0.20804662 -1.1201106 -0.19627057 0.80015093 -0.4801626 0.0016553097 0.27409336 0.119017154 -0.3483881 0.53371614 0.06946671 0.6793253 0.2646158 -0.5339357 -0.47955227 1.3738576 -1.687718 -0.8212964 -0.7225808
8-8 -0.65178806 -0.25371692 -0.56834024 0.35649312 -0.4707269 -0.008807716 -0.25258884 -0.46493766 -0.8241294 0.7759527 1.1263564 0.5464776 0.33442092 -0.29593232 -0.47214177 0.637782 -0.905517 -1.6685783 -1.0312607 -0.44107622
3-1 0.016358463 0.52056396 0.8830486 -0.5037044 -0.26926854 0.42605606 0.31841436 0.915083 0.105938375 0.30964905 0.71413165 0.7824796 0.9154502 0.5674759 -0.22849035 -0.25493184 0.4112204 -1.5020266 -1.5048221 0.2697349
99-19 0.3815095 -0.4992016 0.61155707 0.08277246 0.07431031 0.008906732 1.2203597 0.40793917 -0.7238853 0.1201767 0.03899949 0.040186148 0.09369977 -0.49703386 -0.6405949 -1.0169348 -0.47745457 -1.8074017 -0.14292596 -1.5126935
83-14 -0.027906662 0.5777354 0.5598442 -0.3354219 -0.101056315 0.5064262 0.38466188 0.82785064 -0.14101976 0.4100781 1.098336 0.61278874 1.0303109 0.44403777 -0.13340122 -0.3041924 0.17752433 -1.490083 -1.6028512 0.30647272
8-9 0.71736413 0.2741269 -0.7955994 1.0390222 -0.70793724 0.91217357 -0.123899706 0.19541295 -0.06626301 0.567481 0.5472516 0.49334398 -0.027287949 -0.5775656 -0.30937663 0.14959829 -0.13796496 -2.2192533 0.39334664 -0.49904922
68-1 0.72130746 0.5449798 0.23235022 0.4282809 0.41225138 -0.138027 0.3484038 1.0578774 -0.36888704 0.8107151 0.8190903 0.104671486 0.23648801 1.2749441 0.77828515 1.0871118 0.063469954 -1.0143467 -0.64215904 -1.2715398
2-7 0.53369886 0.15332976 -1.2766362 -0.5030483 0.8127671 -0.6038495 0.011552448 0.31823403 -0.07429234 -0.5582148 0.47671774 0.054019555 0.37121692 0.5304135 -0.73177403 -0.26129863 1.0883942 -1.6048754 -0.6339964 -1.0512915
58-8 -0.30156735 -0.8297661 0.54832006 0.45909977 0.5495379 -0.65507597 -0.86441404 0.82527375 -0.040929552 0.4326255 0.7729162 0.37695614 0.25315425 -0.7266234 -0.017742898 0.12218387 1.4821346 -1.5026339 -0.49226254 -0.83785516
44-11 -0.10731673 -0.011117088 -0.13468726 0.04255121 -0.6275123 0.23886114 0.491263 1.4259311 -1.0956444 0.6342592 -0.4224745 -1.047298 0.15010406 0.15060134 -0.88389283 0.96033937 0.5953478 -1.1945728 -0.85737145 -0.31083915
33-2 -0.39716253 0.14491627 -0.2988058 -0.23568413 -0.46151984 0.6623019 0.15367594 1.5480685 -1.2237228 0.5614698 -0.5124404 -0.81391066 0.23314063 0.27534106 -1.1894065 0.64467406 0.5903785 -1.2098126 -0.6237761 -0.38056916
7-9 -0.65960807 1.1164626 0.092953846 -0.8446426 0.8252179 0.63011146 -0.37463418 0.7295491 0.015188549 -0.19708073 0.3774842 0.39425725 0.046062775 -0.01942124 -0.6378022 0.93202305 0.19699694 -1.2146934 0.1966772 -1.8010266
29-6 0.2057092 -0.04659777 0.9141152 -0.6218138 -0.9026485 -0.6236882 0.023594271 -0.17950417 0.6711369 0.5989918 -0.3201815 0.4367018 0.14620617 0.7303509 -0.5505241 0.932592 0.5105423 -1.8049085 -0.2451427 -1.1058819
24-8 -0.40865558 1.1021634 -0.2569098 -0.7905088 1.0651712 0.7602096 -0.62480855 0.64809006 -0.4233063 -0.16820852 0.26560107 0.21438959 0.2770506 0.047567505 -0.60886437 0.46753597 0.23011301 -1.2231413 0.13871904 -1.7526016
32-15 0.0060412465 0.42178863 0.44977275 -0.5362765 -0.6314537 -0.77560085 0.15139604 0.5059907 -0.9215188 -0.3206377 0.85775596 -0.38185006 1.7045014 -0.42951274 -0.06687157 0.5274329 0.2571211 -1.3677516 0.870663 -0.4891127
24-10 0.878365 0.5470254 -0.408811 -0.31300166 0.15253134 0.24457262 0.17371775 -0.070157945 -0.11274127 -0.17406394 -0.5124137 -0.43176186 0.30823943 -1.0714369 0.6985292 0.9810054 0.3467139 -1.930702 -1.0879475 -0.42354974
1-11 0.29979122 -1.3080177 -1.0480678 -1.2711315 0.23942696 0.16375214 0.37495783 0.8303471 0.19587871 0.9810339 0.56291777 0.5314355 0.7967262 -0.29483783 -0.07261254 0.6836729 -0.22271188 -1.1554849 -0.11701049 -0.7347371
38-14 0.7289378 -0.0001234372 -0.03692794 0.32858682 0.24642104 -0.36909407 0.45805198 0.92596006 -0.34239343 1.0276991 0.72872525 -0.24672417 0.27817193 1.188682 0.9624527 1.0982059 -0.13785364 -1.1291016 -0.36524624 -1.1990192
51-10 -0.11305736 0.680826 0.6074564 -0.38269284 -0.2643135 0.49618205 0.6071337 1.1454228 0.3222895 0.09621214 1.2347242 0.42947417 0.9306441 0.26178044 -0.20087773 -0.35488454 0.2371823 -1.4345467 -1.4474488 0.1743143
31-8 -0.67215973 0.96389115 0.027614381 -0.7306169 1.0483112 0.56388986 -0.5148715 0.8826664 -0.16582583 -0.07362576 0.53062075 0.23637263 0.037735704 -0.4562147 -0.53357464 0.81447536 0.26636538 -1.1409521 0.18245138 -1.7218318
95-17 -0.30866605 -0.34806523 -0.09526683 -0.13223696 -0.89529973 0.26788172 0.1665592 1.3707012 -1.1739978 0.6447534 -0.62780386 -0.6548805 0.24638899 0.42466885 -1.0747762 0.64843976 0.6744985 -1.260781 -0.64142525 -0.3289811
18-2 -0.033024374 0.74106854 0.6342945 -0.37764436 0.05632005 0.47882017 0.372844 1.1165384 0.055325463 0.36064297 0.9156052 0.6703873 0.98346436 0.53988874 -0.025594674 -0.50236523 0.10874947 -1.7098674 -1.3497409 0.3806846
9-17 0.44276002 -0.585256 0.31856743 -0.39063436 0.003261008 1.5616233 -0.1186937 -0.2816325 -0.65214306 -0.41474643 0.9734825 -0.6060747 0.18057911 0.53725547 0.1846897 0.67393196 0.5626244 -1.9086676 0.42406142 -0.5199958
64-18 0.19579358 -0.10172618 0.124182224 0.0054372875 -0.7306684 0.61620307 -0.4396583 0.70000184 0.8297291 -0.07576661 0.43652278 -1.1290603 0.9170381 -0.5173821 0.1918237 -0.28008637 -0.43125522 -1.084204 -0.83119726 -1.7655867
91-17 0.15379079 0.623475 0.06703098 -0.580154 -0.39952266 -1.116686 0.079800844 0.40925238 -0.8969304 -0.12430066 0.61456835 -0.37117463 1.7462968 -0.31426752 -0.07395252 0.07502837 0.3017014 -1.5638372 0.6809019 -0.30084386
15-9 0.29526722 0.48787516 0.5538494 -0.59316814 -0.6695561 -1.1941357 -0.21670872 0.522484 -0.9139636 -0.2535836 0.5872794 -0.18854071 1.6369398 -0.26995257 -0.29167876 0.3803946 0.08743001 -1.3808784 0.5658436 -0.48573968
90-13 0.1461966 -0.35690174 0.5319065 0.038951606 -0.103218496 0.1468353 1.3558955 0.41853857 -0.75986224 0.49062532 -0.003344259 -0.15908305 -0.05408738 -0.5868878 -0.6980347 -0.9619954 -0.09318054 -1.6498252 -0.18755573 -1.5412217
20-3 0.70311904 0.614533 -0.68830043 0.8292994 -0.3340891 0.9983286 -0.5542508 0.57933456 0.16086031 0.527267 0.568167 0.60931295 -0.024621869 -0.68736476 -0.20811391 0.40317005 0.21635026 -2.0904715 0.58489573 -0.5251928
36-6 0.3452714 -0.21218844 -1.5487373 -0.5425351 0.77451724 -0.62904125 0.07552202 0.16269277 0.25467405 -0.16430488 0.39584333 -0.08873704 0.56963515 0.45657185 -0.32868826 -0.46942878 1.0121633 -1.8637859 -0.38970798 -0.8506564
80-8 -0.22716922 1.0535411 -0.19623412 -0.8825396 1.1799911 0.44109997 -0.6340812 0.7387199 -0.2022077 -0.26005745 0.41950053 0.0301391 -0.0097419005 -0.088387236 -0.7070094 0.61215675 -0.0078255255 -1.3099604 0.14013818 -1.6240256
51-6 0.47488457 -0.060698878 -1.2908938 -0.3470379 0.4066783 -0.617008 0.20994376 0.18002644 0.08096708 -0.356437 0.1225241 -0.21402271 0.5446568 0.60921353 -0.8248154 -0.143993 1.3626043 -1.7461231 -0.6723088 -0.832263
85-14 0.31752092 -0.7572841 0.5394653 -0.23313348 0.27728283 1.0527766 -0.021584049 -0.039485645 -0.70678896 -0.24065526 1.3357011 -0.80704457 0.1441357 0.4313118 0.14880294 0.8645919 0.73986465 -1.6384842 0.39735457 -0.5333184
60-12 0.28503448 0.17123696 -1.3336022 -0.44981518 0.6406679 -0.63281333 0.15887189 0.24273282 0.20531975 -0.30025476 0.37349173 -0.09425869 0.5856537 0.5694088 -0.50215155 -0.5537363 1.0366033 -1.8918046 -0.6787357 -0.5378675
54-6 0.43177825 -0.6838668 0.35348696 -0.40879986 -0.06451727 1.4383779 -0.035965294 -0.13133498 -0.67633325 -0.39276582 0.89541674 -0.58800095 0.18794015 0.48017925 0.09500759 0.65199834 0.54540247 -1.8772358 0.57659113 -0.3746448
19-18 0.63064307 0.25192887 -1.2725497 -0.16061632 0.7160131 -0.4322805 0.27477747 0.24380068 0.16213426 -0.24138121 0.5649856 0.047872677 0.6431365 0.75070834 -0.44444892 -0.2659651 1.2057325 -1.6016665 -0.86659443 -0.88380724
40-18 -0.6644631 0.11123231 -0.27229726 -0.09294806 -0.45502773 0.3514679 0.14560258 1.331041 -1.2243553 0.6507881 -0.26713046 -0.8516642 0.010288244 0.15363483 -1.3612064 0.7175702 0.52209777 -1.2217767 -0.71342766 -0.43643355
34-9 -0.1245338 0.09964415 -0.026044894 -0.09155404 -0.87415326 0.6657179 -0.8121174 1.1885824 0.7400212 0.013528016 0.54491895 -1.1522152 0.82868874 -0.1657194 -0.28887144 -0.048483223 -0.19651291 -0.93405277 -0.6749841 -1.5532432
75-8 -0.05176229 -0.05666594 0.2699471 0.11655557 -0.79098827 0.5051642 -0.8544205 1.1722126 0.96424186 -0.031761095 1.0269419 -0.8277923 0.99746686 -0.2581492 -0.035751414 -0.22975647 -0.039586447 -0.9675158 -0.72379076 -1.4213455
44-16 0.22844115 -0.6028187 0.8347853 0.23077783 0.154235 -0.024257142 1.0860866 0.5770744 -0.6755342 0.14288558 0.19695775 0.16689901 0.10105002 -0.69054013 -0.5397007 -0.97977453 -0.21132992 -1.6628937 -0.03821326 -1.6031941
74-3 0.604638 0.22857398 -1.1919119 -0.460413 0.61731356 -0.64522576 0.21399456 0.10359876 0.013461502 -0.42476475 0.57615745 -0.04678219 1.0288186 0.4455082 -0.53265756 -0.47792172 1.1644865 -1.6637889 -0.70265007 -0.68408847
6-7 0.14498927 0.17496705 -1.468709 -0.4882158 0.75043505 -0.40190002 0.34925258 0.2612745 0.122262836 -0.5797923 0.44687307 0.17178021 0.46158707 0.3034717 -0.4791229 -0.1492759 1.2968667 -1.54611 -0.50564927 -1.1804
83-17 -1.0016385 0.20914254 -0.40410268 -0.09388966 0.3762322 -0.46266216 0.03910761 0.9728955 0.22148873 0.39762512 -0.17834541 -0.7032703 0.045210484 0.48020008 0.4085493 -0.26571065 -0.15320711 -2.4659665 0.12725835 -0.08173115
24-16 0.09542104 0.7718421 0.6192777 -0.40549392 -0.29439294 0.3548215 0.42517135 0.96324563 0.18292539 0.32090595 1.254138 0.24886084 1.2045586 0.14021473 -0.3344923 -0.35076877 0.19071093 -1.3310595 -1.4405333 0.20388846
53-7 1.0118686 0.1241686 -0.12815711 0.4038281 0.35655937 -0.2809223 0.3814785 0.64340717 -0.40573457 0.5782818 0.9345494 -0.30056578 0.3770982 1.3307499 0.7868326 0.9770488 0.35141775 -1.0444571 -0.4916799 -1.2541394
30-8 0.004234669 0.8369232 0.6415293 -0.47159663 0.1640288 0.35668477 0.57553655 0.98011523 0.16821083 0.36184475 0.81325716 0.3703512 0.86330956 0.13901046 -0.04556966 -0.26010558 0.19869514 -1.6863961 -1.5234824 0.44121045
90-12 -0.1365366 -0.2577052 -0.0155424485 -0.08597726 -0.5447202 0.4169967 0.58698475 1.3599281 -1.143333 0.48603317 -0.17712389 -1.1106906 0.031928197 0.27444157 -1.3392532 0.58166623 0.5819962 -1.3510348 -0.5828897 -0.33635435
31-17 0.77421755 0.61137384 -0.8607537 0.6011447 -0.7792412 0.69877774 -0.3665007 0.36417112 0.25436157 0.7813803 0.507317 0.32688594 -0.18666098 -0.53327274 -0.01571982 0.19762923 0.16720344 -2.2038252 0.57560825 -0.34836888
77-15 0.24812761 1.0760143 0.07776619 -1.2524915 -0.853193 -0.030981345 0.1274659 0.108194835 -0.306164 1.0007844 1.2000047 -0.10178701 -0.6500426 -0.2775972 -0.110164195 -0.23901321 0.8909586 -1.1591715 -0.43125826 -1.061739
67-13 -1.1940681 -0.088129714 -0.012774033 -0.2044702 0.24877532 -0.47430995 0.086342625 1.1399516 0.24104267 0.21324882 0.19651821 -0.39366433 -0.080929965 0.101890296 0.88262695 -0.13769029 -0.18699884 -2.3575282 0.34981465 -0.096670985
75-12 -0.8702553 -0.0017157767 -0.16263813 -0.2243806 0.51833284 -0.52609277 0.21709679 0.7356047 0.24399795 0.4213086 -0.079701796 -0.5585689 0.024428623 0.34762183 0.5090062 -0.50150675 -0.2817031 -2.5738077 0.25694504 -0.25343066
43-19 -0.66862035 1.2179694 -0.05425374 -0.85972595 1.1414293 0.6400334 -0.44792333 0.8334298 -0.069628686 0.12319533 0.37450802 0.07145876 0.011041951 -0.08808929 -0.6070744 0.47790566 -0.021770695 -1.4226688 0.20024195 -1.5509557
11-19 0.9430727 -0.52917856 0.14633945 -0.8403374 -0.31716898 -0.782574 -0.5944528 0.98869234 -0.56328464 -0.86497384 0.6234339 0.33863437 -0.6366558 0.11983484 -0.57831883 0.40630615 -0.6109087 -1.609184 -0.65034974 -0.71572375
2-5 0.47291288 0.74271965 0.67244416 -0.31392246 -0.14408734 0.49543095 0.25046507 1.1887689 0.14069249 0.19435333 1.1686932 0.70499057 0.6118063 0.2350297 -0.4458828 -0.23875079 0.031233072 -1.6312448 -1.2724545 0.46411756
15-8 1.1122433 -0.2422032 0.19682579 -0.725243 -0.34424096 -0.9791482 -0.58174276 1.147307 -0.84711987 -0.7969875 0.8416665 0.16965328 -0.35432845 0.2693743 -0.35616994 0.31158417 -0.55901676 -1.3807316 -0.4802869 -0.7057906
64-2 -0.21464564 -0.25550878 -0.48443687 -0.2632624 -0.62081337 1.0515269 -0.7751551 0.38072193 -1.1150626 0.13750905 -0.42826107 0.8115716 0.9647423 0.50884503 0.71167374 -0.21426004 0.27503642 -1.5275381 -0.38073015 -0.9263238
36-14 -0.21796988 -0.12890646 -0.22089563 -0.11099496 -0.78021175 0.4202719 0.17544107 1.4691987 -0.7450853 0.5464153 -0.4094558 -1.252119 0.25472674 -0.012683272 -1.0378183 0.65410453 0.5043327 -1.2252275 -1.0226053 -0.29356655
86-8 0.049857885 0.15825027 0.20822003 -0.10750131 -0.98508006 0.40803432 -0.66076374 0.98053443 0.79786026 -0.10754095 0.80497843 -1.0116035 1.2600535 -0.06386204 0.010284927 -0.20264784 -0.24525209 -0.96283865 -0.6273297 -1.3532327
89-0 -0.030532882 -0.4223538 0.64596814 0.1326775 0.22490591 -0.047547195 1.3321847 0.4420788 -0.54243326 0.37023935 -0.14666666 -0.025999311 0.19208466 -0.49445367 -0.47945353 -1.0017129 -0.30283362 -1.9836702 0.02417417 -1.459332
26-17 -0.45965806 -0.06799574 -0.18661919 -0.15799993 -0.4852911 0.1516403 0.3468423 1.6350981 -0.8866255 0.66433394 -0.26140758 -0.97797346 0.15145743 0.29501906 -1.0636756 0.49396908 0.53092074 -1.4554824 -0.6707557 0.12642257
54-15 -0.07176467 0.676946 0.5820866 -0.39752078 -0.17654414 0.33340803 0.7132531 0.88402826 0.055314254 0.21037188 1.2774177 0.72075385 0.8812886 0.23571582 -0.30934393 -0.097380854 0.102945365 -1.5131377 -1.5424689 0.30169076
3-7 -0.36341986 1.1944965 -0.013423078 -0.82174176 1.005564 0.8072223 -0.6479026 0.7931572 -0.10392715 -0.040118657 0.29591873 -0.2055262 0.15839216 -0.40387967 -0.49416694 0.70618135 0.071273655 -1.1644062 -0.07818586 -1.7346586
60-10 0.22693065 -0.009461643 0.8835274 -0.3567809 -0.731568 -0.2546638 -0.12480767 -0.08848138 0.9650506 0.4407514 -0.2815065 0.72649556 0.420387 0.5890049 -0.832905 0.8704332 0.46307328 -2.06572 -0.1910053 -0.63906026
64-6 0.6727883 0.05656672 -1.3889154 -0.58842474 0.49963054 -0.6460405 0.0717938 0.14975479 -0.025639223 -0.38983685 0.5248167 -0.034633167 0.20469181 0.34170082 -0.55489403 -0.44754356 1.2496976 -1.6766391 -0.71221995 -0.96876
1-7 -1.0156546 -0.15390857 -0.043542236 -0.11351826 0.42610085 -0.3321189 -0.28024483 0.9361537 0.14324269 0.57681084 -0.19110942 -0.3231891 0.1725906 0.3275623 0.8104548 -0.43898484 -0.10649936 -2.4303288 0.19518034 -0.14362745
72-17 0.21788584 0.7158313 0.045153398 -1.2545228 -0.93951714 0.11992809 0.04661822 -0.017743053 -0.50342315 0.87164366 1.2073178 -0.47127944 -0.7656961 -0.25283304 0.1485844 -0.1780027 0.91517407 -1.2171776 -0.10261323 -1.2172943
11-11 -0.9296521 -0.044458758 -0.32966945 -0.4588434 0.36403003 -0.32415873 0.009003243 1.1043886 0.106960475 0.8451428 -0.1713411 -0.7330781 0.14378174 0.3979313 0.48225483 -0.040791832 -0.42810285 -2.3551078 0.22267832 0.08920832
35-4 -0.30985984 1.1571352 0.028013589 -0.8673024 1.0899525 0.8288085 -0.36184177 0.54537386 -0.16233493 -0.0016335147 0.3556129 -0.09166618 0.12756507 -0.33986318 -0.60613436 0.82277006 0.062178265 -1.28207 0.13506602 -1.6307921
76-3 -0.23626973 1.2563938 0.17707959 -0.97852236 1.0158117 0.6332336 -0.5290874 0.98502433 -0.3399952 -0.1887075 0.59788847 0.32536474 -0.015670322 -0.081245445 -0.8027346 0.57971996 -0.11745293 -1.1589034 -0.10284263 -1.4537021
64-14 0.52563965 0.20982927 -0.08909451 0.55327696 0.102353826 -0.4716792 0.58092785 1.0864097 -0.3584643 0.6307709 0.65222514 -0.18885154 0.13212363 1.2561802 1.0855148 1.0352248 -0.09937739 -1.2340295 -0.45677936 -1.1640763
13-3 -0.018230183 0.55326897 -0.12548295 -0.9734287 -1.1898202 -0.2880848 0.1154933 -0.027692655 -0.74373806 1.2163963 0.93217623 -0.45944175 -0.6144467 -0.22953944 -0.123426 -0.17248705 0.8835087 -1.1639165 -0.54030067 -0.99301684
48-11 -0.22863649 -0.29354268 -0.38177383 -0.5251179 -0.84702957 0.20022236 0.3869306 1.4277362 -1.0063158 1.0963558 -0.14488745 -0.960221 0.1198472 0.084846064 -1.1474998 0.6396072 0.6342446 -1.1529331 -0.63385755 -0.24495722
54-4 0.58911943 0.077322856 -1.5351512 -0.06291009 0.67545414 -0.48616588 0.11637854 0.18841296 0.1809876 -0.36522695 0.37786797 -0.13698049 0.3556447 0.3978248 -0.3865935 -0.41330388 1.074605 -1.9887594 -0.40842575 -0.73629665
98-1 -0.8438181 0.13187325 -0.10145002 -0.073233634 0.090687454 -0.4333722 -0.09617308 0.7903261 0.4664934 0.5736932 -0.15361063 -0.37108442 0.029372403 0.30544963 0.5626041 -0.14117979 -0.46989378 -2.7384412 0.41442642 -0.09398144
43-16 0.9635045 0.27201095 0.3011088 0.6916251 0.22788526 -0.20181592 0.7086807 0.84922653 -0.49000254 0.7679928 0.75202185 -0.093780525 0.2892682 1.1485834 0.70361966 0.66888744 -0.007228293 -1.0994123 -0.6138895 -1.3748889
33-10 0.27689198 0.66650563 -0.12696265 -1.168647 -1.1086171 -0.11625633 0.025296634 -0.033120997 -0.25347295 0.84908605 0.85449415 -0.60540974 -0.67874795 -0.6403311 0.3804808 -0.2377249 0.8329631 -1.2144544 -0.61243457 -1.2385098
37-8 0.32720324 -0.30703658 0.7933866 0.29859185 0.15432121 0.15801696 1.4867961 0.35621527 -0.61082554 0.55285263 0.19590242 0.039642163 0.24134444 -0.19708034 -0.4783223 -0.84202224 -0.2945815 -1.6532851 -0.29205218 -1.5860149
12-15 -0.5036564 1.1447611 -0.028480584 -0.9154139 1.1384553 0.39913654 -0.4919275 0.8917985 -0.25391567 -0.09605514 0.39272124 -0.044482656 -0.0996783 -0.031219339 -0.53355855 0.4704662 -0.20064993 -1.3681023 0.31099406 -1.519419
82-14 0.5945174 0.64418805 -0.17088014 -1.0388861 -1.1081024 -0.44077542 0.14441696 0.17588875 -0.5408971 0.95735174 0.89324355 -0.28053424 -0.89062804 -0.07950687 0.34694725 -0.13521661 0.76362866 -1.1768407 -0.44177306 -1.2044797
55-13 -0.20892686 -0.12278064 -0.042505156 -0.15017535 -1.0679977 0.559224 -0.73238534 1.0829717 0.8211011 -0.26087007 0.55744296 -0.7299194 1.0765198 -0.046954963 0.22508174 -0.17742987 -0.11720247 -0.9317324 -0.5097103 -1.6887021
17-8 0.71633667 0.6538139 -0.61511654 0.66135144 -0.51199085 0.9275582 -0.4522386 0.35309628 0.184286 0.43861067 0.33535475 0.701904 0.0039019536 -0.50909686 -0.37383115 0.53187865 0.12305567 -2.0976353 0.63751006 -0.54265076
79-11 0.041392747 0.5697681 0.52648324 -0.40964204 -0.4579671 -1.0432904 0.1160964 0.5214706 -1.0268896 0.015124952 0.5793144 -0.5422323 1.6174725 -0.45779046 -0.020852003 0.09043569 -0.045824923 -1.5502255 0.72010446 -0.483323
35-7 -0.26972786 -0.3506411 -0.3742965 0.16448137 -0.38812888 0.09246782 0.16222408 1.5239943 -0.9916464 0.51150846 -0.22648129 -0.9263866 0.10385269 0.08937562 -1.2258561 0.5534282 0.98866355 -1.273845 -0.7459163 -0.23481092
5-4 0.1644441 0.5004104 0.18771869 -1.1346573 -1.4268093 -0.29290876 -0.06684494 -0.07594064 -0.10164997 0.9008124 0.9159228 -0.32550204 -0.67433554 -0.12564084 0.12396761 -0.2555898 0.8497849 -1.2684455 -0.4860448 -1.2618096
68-4 0.57469875 0.23219389 0.14091186 -0.39989376 0.2742769 0.27954793 -0.0858329 0.24590445 -0.3437051 -0.11158905 -0.5795548 -0.27531 0.4567107 -1.1907908 1.0557648 1.0553017 0.45868817 -1.7413225 -1.2210697 -0.4837607
10-9 0.4643643 0.33693618 0.043280732 -0.5883368 0.31173146 0.35352036 0.22655968 -0.031495947 -0.16875352 -0.16072653 -0.39127022 -0.78673595 0.31984794 -0.9930068 0.9409314 0.9692123 0.074429855 -1.92956 -1.0074067 -0.31050465
49-16 -1.1895989 -0.0923029 -0.012019406 -0.024595812 0.31285325 -0.5588077 -0.23194951 0.7999795 0.14952168 0.5964344 0.20707448 -0.41516215 0.039955832 0.20007017 0.79566026 -0.21518475 -0.41339594 -2.482103 0.061927225 -0.08949829
40-6 0.5305654 -0.40628365 -1.3779868 -0.37812555 0.6957567 -0.5321616 0.017824575 0.24530083 0.1416215 -0.16344094 0.48894018 0.10160967 0.58555144 0.28327933 -0.517707 -0.35230672 1.3447847 -1.5982205 -0.60941154 -0.93052256
68-11 0.049158532 0.6421213 0.3717117 -0.6554429 -0.7725983 -0.97942287 0.14546172 0.57290053 -1.150686 0.20185061 0.67496324 -0.61454433 1.496021 -0.47722888 -0.29301482 0.3580216 0.34829754 -1.2874091 0.64924705 -0.42023388
61-14 -0.65825254 0.2516435 -0.24559082 -0.070227474 0.3273928 -0.25527668 -0.05268411 0.83856297 0.3537253 0.57626647 -0.15111823 -0.58353436 0.09021799 0.04434991 0.8737335 -0.011725036 -0.4534104 -2.628594 0.26360235 0.0404207
49-3 0.41636154 -0.60273784 0.39741758 -0.53613466 -0.018689174 1.3383007 0.051224206 -0.1842972 -0.41903353 -0.53940505 0.9945411 -1.352263 0.23089035 0.2610048 0.19053026 0.80210674 0.5037217 -1.7039741 0.058622114 -0.6420191
72-4 0.6980331 -0.00042465355 -1.2397305 -0.20492761 0.62209195 -0.6274237 0.16820852 0.0834788 0.122910954 -0.23719567 0.3548315 0.0010933822 0.5257817 0.775951 -0.5287153 -0.17230149 1.2389244 -1.6119254 -0.57269055 -1.1404943
81-11 0.2286175 0.8170137 0.10123541 -1.0840523 -1.2295231 -0.08981188 0.06488518 0.09994745 -0.06322185 1.0301174 1.1464717 -0.4127908 -0.46886262 -0.22107719 0.089381844 -0.4308623 0.8721791 -1.1357216 -0.6442396 -1.0834739
94-15 0.009105607 0.09676058 -0.082095675 -0.21502376 -1.1826718 0.65393424 -0.83748394 0.7892739 0.7248087 0.010404754 0.6450659 -0.9214534 0.88324994 0.018492442 0.23867412 -0.3536262 -0.061273977 -0.96188986 -0.6319816 -1.6976665
4-17 0.24314387 -0.30648756 0.5403319 0.022989428 -0.20720102 0.18906951 1.1553926 0.19598497 -0.86164397 0.44423857 -0.06430993 0.22635409 0.091312274 -0.42814058 -0.3223688 -1.171055 -0.06381214 -1.6594532 -0.040592756 -1.658072
52-11 0.45833462 0.4890135 -0.037332423 -0.6495974 -0.06209667 0.078896575 0.1786132 0.066562675 -0.124621615 0.0608525 -0.64089864 -0.66596574 0.08304646 -1.0677575 1.0499327 0.8849218 0.2578534 -1.8593053 -1.139264 -0.48070076
91-9 0.85399055 0.36850527 -0.5549925 0.94015586 -0.77727383 0.9672526 -0.5121219 0.6670381 0.25716096 0.47070774 0.59605366 0.48055002 0.042966302 -0.5932919 -0.07367699 0.2974606 0.27010643 -2.0539105 0.50645554 -0.4925237
16-8 -0.1721693 -0.3420768 1.0171467 -0.29173315 -0.6139067 -0.6416108 -0.3164365 -0.010036624 0.8034164 0.39992094 -0.44015792 0.41145867 0.2256426 0.53459215 -0.56077933 0.80928147 0.6516464 -2.0527978 -0.11192101 -0.92277867
43-5 -0.7896569 0.10931081 -0.52761793 0.28988057 -0.6677827 -0.016619429 -0.34021553 -0.63344836 -1.0454652 0.72368413 1.0590227 0.28203994 0.038036242 -0.25878116 -0.45163938 0.50237834 -0.62793744 -1.8069984 -1.1990454 -0.55092907
44-14 0.10839537 0.36059737 0.13649343 -0.9919407 -1.0864574 -0.38709906 -0.07578822 -0.031456318 -0.36749977 1.0657811 0.96290064 -0.24768579 -0.81140137 -0.3768837 0.13524124 -0.10169502 1.1653903 -1.2538913 -0.3317723 -1.2139356
36-12 -0.6050106 1.1489203 -0.10810447 -0.73849225 0.819386 0.6520161 -0.3653893 0.9362216 -0.06349987 -0.13799074 0.5505504 0.056690574 0.17554647 -0.20105837 -0.54539585 0.68209034 0.12315276 -0.9911556 0.17724444 -1.8218656
93-5 0.8558594 0.35922998 -0.71639055 0.84807247 -0.78353626 1.0864317 -0.20960185 0.6213948 -0.060202032 0.43119293 0.41746 0.16015704 -0.12775157 -0.5011074 -0.32523978 0.5515804 0.31092083 -2.127628 0.49265233 -0.19849703
7-19 0.8606921 0.33914042 -0.6132826 0.74457186 -0.7091966 1.1148705 -0.37170172 0.44800052 0.03956449 0.4302379 0.6008363 0.41081026 -0.042007115 -0.44852525 -0.14124928 0.4780999 0.14493133 -2.2013094 0.64090204 -0.34094477
39-12 0.5698328 -0.69605666 0.42665297 -0.74187297 0.034826893 1.1159495 -0.058124963 -0.12802914 -0.791528 -0.40989032 1.260213 -0.7877127 -0.2230503 0.40264782 0.031687714 0.6419891 0.50687426 -1.7257375 0.29456854 -0.48628113
52-1 -0.48260522 -0.24392897 -0.3834122 -0.022666538 -0.8634064 0.31325075 0.09379068 1.4019741 -0.9475262 0.58458185 -0.21766938 -1.134899 0.25291622 0.15211612 -1.1912607 0.5972355 0.3841299 -1.2302163 -0.8557526 -0.3444209
18-8 0.78238815 0.6666166 -0.62360346 0.77362806 -0.3564378 0.91953176 -0.58055556 0.5557499 0.06315229 0.60718894 0.4977611 0.5231722 -0.083071664 -0.6515008 -0.26053625 0.41714644 0.25213444 -2.1499884 0.6300508 -0.44913745
19-16 0.77254486 0.68665653 -0.65544355 0.62569785 -0.50187135 0.98969233 -0.201455 0.5835634 0.27230266 0.52386063 0.57381165 0.5931871 0.1266939 -0.31530005 -0.17617512 0.13219398 -0.06454576 -2.2346017 0.32619962 0.056847632
56-12 0.5313822 0.5206764 -0.14605498 -0.203451 -0.001070967 0.3383235 0.0170035 -0.08490131 -0.36410603 -0.09042169 -0.47642487 -0.44061464 0.37860847 -1.2357517 0.7159875 1.1067859 0.055778153 -1.9307258 -1.2781026 -0.41584656
60-13 -1.1467876 0.08836619 -0.4670316 -0.1013158 0.46648574 -0.57114154 -0.1021794 0.5223236 0.19225995 0.4034542 0.16906458 -0.56183875 -0.015244632 0.38003245 0.5173966 -0.31540206 -0.35660592 -2.5502102 0.040787663 -0.16100281
68-19 1.0093142 -0.4162479 -0.25365487 -0.794166 -0.18333265 -0.77940905 -0.5439255 1.0603321 -0.6645634 -0.9311832 0.7001888 0.20812516 -0.49849227 0.22001292 -0.56650656 0.045430493 -0.549594 -1.5785129 -0.67846483 -0.7075634
72-10 0.7649081 0.26764992 -0.26420614 -0.51137006 0.11067395 0.41432834 0.17373395 0.15014434 -0.18573235 0.14198035 -0.4665841 -0.3821649 0.38664192 -1.2953889 0.7752131 1.0712515 0.044012304 -1.840542 -1.1801138 -0.31317765
43-15 0.20996958 -0.44510984 0.78393406 0.5196951 0.29340735 0.016823877 1.308571 0.4944386 -0.63310176 0.4258527 0.057549383 0.10269677 0.15053794 -0.43698934 -0.37456197 -0.70551366 -0.08724821 -1.6034595 -0.12332204 -1.730568
49-19 -0.26259136 -0.010651106 -0.16155915 -0.13521545 -0.7178937 0.38924423 0.42372814 1.6311808 -0.91471523 0.70265317 -0.20847616 -0.88588274 0.23931496 0.27903745 -1.2648282 0.56764793 0.5041311 -1.356562 -0.8840219 -0.07519019
8-5 0.11459541 0.6501671 0.0407365 -1.1906677 -0.8117447 -0.13004786 -0.15922017 0.14779064 -0.437755 1.0968244 1.0733387 -0.18199769 -0.8253767 -0.44429374 0.067725174 -0.20978683 0.98824674 -1.1575876 -0.23422562 -1.3057891
84-4 -0.10943105 -0.35084417 -0.093122795 -0.01365246 -0.6606057 0.12929961 0.56769526 1.5450709 -1.1356407 0.418947 -0.3053523 -0.8325704 -0.060210805 0.16671 -1.3158513 0.31750637 0.30317062 -1.3109193 -0.61818266 -0.3466381
64-17 0.67674917 0.24665149 0.07510321 -0.5510752 0.11856714 0.567691 0.079980455 0.06979257 -0.05467105 -0.29785714 -0.2726333 -1.0084344 0.40974942 -1.0467641 0.82921755 1.0007129 0.11477836 -1.6936188 -1.2401339 -0.5858404
92-13 0.81123316 0.30259407 -0.07197284 -0.5877403 0.12745774 0.25828406 -0.057244882 0.1923518 -0.5438037 -0.32447448 -0.6366293 -0.2893873 0.25012395 -1.0483264 0.8794813 0.889721 0.047900878 -1.8214494 -1.3696893 -0.4856005
15-12 0.33050185 -1.0063722 0.48832786 -0.56764656 0.31041533 1.1813974 -0.104840256 0.039802715 -0.53223795 -0.23487216 1.2544005 -0.7599378 0.25552464 0.34613895 0.063000366 0.7990291 0.7196194 -1.6454351 0.36793807 -0.4056135
3-3 0.48932484 0.046321314 -1.3653861 -0.5388717 0.45463383 -0.3453685 0.013706549 0.060354102 -0.1578182 -0.2733138 0.38116184 -0.00918255 0.5354315 0.4661115 -0.40181258 -0.6426468 1.3641522 -1.6345866 -0.6295561 -0.9478267
28-11 0.7928516 0.50377494 -0.15637659 -0.24712482 -0.13519093 0.43666387 -0.060228113 0.23776735 0.03329257 -0.18711294 -0.5576489 -0.62359476 0.43891764 -1.1768636 0.8200858 1.0347333 -0.017266365 -1.8464547 -1.2072423 -0.53610075
84-3 0.89337844 -0.51260227 0.10623959 -0.6969954 -0.30179775 -0.7212656 -0.65938646 1.4662739 -0.8418431 -0.77085423 0.49571484 0.1918185 -0.6020497 0.0061499528 -0.6567716 0.23096871 -0.29136482 -1.4125834 -0.5966521 -0.54553753
17-11 0.24351831 0.8008346 -0.17368446 -1.1504076 -0.93002826 -0.2903405 0.21342762 -0.046639904 -0.35609907 1.0261899 1.1297822 -0.19001874 -0.5834129 -0.14434622 0.021305282 -0.45694888 1.0911357 -1.3198413 -0.51148695 -0.9832568
11-16 0.68651086 0.27081957 0.07494947 0.67284924 0.008226393 -0.38816258 0.47561648 0.676453 -0.39857307 0.83531517 0.9778641 0.03342368 0.38457116 1.1836486 0.77863044 1.083722 -0.055679467 -1.0814334 -0.8720225 -1.1657461
20-8 0.3581745 0.58685464 0.07139714 -0.81557685 -1.0479873 -0.32088482 0.39223316 -0.0060386425 -0.5964016 1.0792565 1.0281738 -0.3163552 -0.78283936 -0.13078764 0.27020645 -0.37923622 0.80502045 -1.2156825 -0.3636187 -1.4029788
34-13 0.5643253 0.27682793 -0.044667833 0.5634096 -0.003716597 -0.20906739 0.27939385 0.6447468 -0.75977224 0.87418187 0.72169644 0.051564336 0.31903613 1.2604073 0.98080546 0.96605295 -0.09206507 -1.0393237 -0.6637391 -1.3081777
18-16 0.54077905 -0.55432713 0.4162863 -0.46195903 0.19635443 1.1672058 0.095418386 -0.14718647 -0.6661659 -0.39881378 1.1041477 -1.0703781 0.21096638 0.45063117 0.24955106 0.951707 0.45734596 -1.7892568 0.22272472 -0.44798175
95-19 0.30017292 -0.63077927 0.48467857 -0.57952034 0.017890729 1.4138461 0.030368349 -0.20498645 -0.8114907 -0.3912258 0.9209638 -0.8032301 0.28743485 0.5694693 0.19159316 0.6586261 0.6034771 -1.7673252 0.29660422 -0.5238279
91-18 0.46516243 0.2851275 -1.3368773 -0.5841113 0.42070344 -0.84942037 0.049651142 0.010930072 -0.13570076 -0.36109945 0.5270165 -0.21887882 0.715241 0.28573832 -0.46002126 -0.49672693 1.3004787 -1.6846173 -0.41474497 -0.83548105
80-12 -0.14593081 -0.25350803 0.70899504 -0.6378159 -0.89565986 -0.47056076 -0.39593574 -0.012518896 0.6520414 0.34157544 -0.79020953 0.6450376 0.42730168 0.82764363 -0.40379938 0.67430794 0.4671036 -2.0196016 -0.13580747 -1.0086851
74-2 0.3460637 0.56853193 0.45705205 -0.5315367 0.014919316 0.21842968 0.45072573 1.0718981 0.012590594 -0.02300708 1.128392 0.6101568 0.7066825 0.439481 -0.39266413 -0.40551898 0.3560698 -1.5276299 -1.6235397 0.33732823
66-1 -0.037816476 -0.3862394 -0.0631198 -0.07837129 -0.6612987 0.1617734 0.37985718 1.549821 -1.0459096 0.47701526 -0.4133418 -0.9054222 -0.054256823 0.13823037 -1.343806 0.4553299 0.28722802 -1.3650749 -0.65235716 -0.35694668
82-16 0.9957463 0.39727947 -0.14229771 -0.41860342 -0.024994252 0.2175802 0.002000018 0.2477474 -0.29351777 -0.3576447 -0.54337686 -0.40883833 0.07500159 -1.1465218 0.6991902 0.9487699 -0.07163763 -1.8177531 -1.1760999 -0.4578996
15-19 -0.5184995 -0.24779622 -0.29953226 -0.12713602 -0.83506554 0.21649641 0.6310294 1.6108414 -1.0332174 0.43015572 -0.23494823 -0.7964697 0.13447711 0.08876988 -1.120757 0.8213288 0.65722203 -1.2312593 -0.62941825 -0.29545096
34-16 -0.14811207 -0.4802403 0.60883814 0.58814806 0.2937735 -0.36742863 -0.8966537 1.0235864 -0.205462 0.65971565 0.95472115 0.40985987 0.32027972 -1.0440695 0.16198145 0.18389404 1.112697 -1.4029294 -0.061570857 -0.69774413
60-5 0.2854352 -1.3419651 -0.8155043 -1.3671052 0.14620556 0.3406435 0.02419554 0.9303656 -0.17030217 1.3454571 0.32312265 0.38020948 0.8256297 -0.24493329 -0.16517164 0.6721295 -0.34313932 -1.1344836 -0.22285 -0.7188245
7-11 0.11091477 -0.05340571 0.15353782 0.018344097 -0.94633704 0.37969637 -0.6817091 0.9036089 1.1056212 0.1828129 0.65784675 -0.8643411 0.93719006 0.20156448 -0.010445638 0.06847877 -0.24972355 -0.9702196 -0.7372702 -1.6960645
9-12 -0.30326784 -0.17660068 -0.31297794 0.09923941 -0.6460934 0.24747774 0.33705235 1.3522394 -1.2028917 0.7196938 -0.15841617 -0.9704762 0.15196177 0.46921378 -1.1691628 0.7990139 0.4824081 -1.19821 -0.69281375 -0.39995515
77-11 0.37317562 -1.3482575 -1.0302105 -1.2755426 0.20165071 0.19274834 0.050732963 0.6885416 0.3819213 1.0374558 0.6419145 0.16157736 1.1211257 -0.2894538 -0.2233657 0.56539315 -0.22235355 -1.130991 -0.20968467 -0.829776
76-18 -0.46792093 -0.7996732 0.5133883 0.3291985 0.4544742 -0.35408917 -1.0766354 0.99948364 -0.3677454 0.6141096 0.68626684 0.5156247 0.16008453 -0.6706257 0.52387476 -0.018040532 1.128559 -1.5608755 -0.2079878 -0.6598604
29-5 0.17202331 0.36033148 0.2411112 -1.120226 -1.0955989 -0.10877502 0.1293629 -0.22119844 -0.24327165 0.94198054 1.0220804 -0.36753398 -0.88885576 -0.03329339 0.0514132 -0.043633312 1.1449898 -1.4003952 -0.2158266 -1.1464328
6-3 1.077083 -0.20253414 0.06760863 -1.0448931 -0.3063362 -0.756647 -0.6185424 0.9848023 -0.8431997 -0.7746529 0.58729875 0.1305639 -0.8056519 -0.13706036 -0.25009814 0.34929258 -0.4476606 -1.5319326 -0.72595346 -0.6776024
22-16 0.18155359 -0.7051563 0.55203223 -0.4987295 0.23365138 1.2062219 0.37517184 -0.17785375 -0.59513456 -0.33752134 0.9108582 -1.013877 0.03836779 0.47725904 0.103435844 0.4382102 0.3569592 -1.9591597 0.5415855 -0.5324268
93-2 0.23767926 0.45237294 -0.10286767 -1.1953934 -1.1503221 -0.35029504 0.026631802 -0.0065178773 -0.69108796 0.87495357 1.1141741 -0.21843223 -0.9719886 -0.33455732 -0.0117933545 -0.26199648 0.5936509 -1.2968112 -0.53802025 -1.0847964
70-1 0.531342 0.25282043 -0.04352578 0.5985622 0.106831275 -0.47341436 0.5149424 1.1222825 -0.51479685 0.8783681 0.47706136 -0.5416928 0.16565208 1.205863 0.806683 1.0417275 0.04993931 -1.1461531 -0.43473995 -1.0362772
6-12 -0.15485017 -0.3005862 -0.06787681 -0.5264897 -0.6897874 0.9887457 -0.7377612 0.40398964 -0.7663678 0.057053946 -0.62901205 0.6494545 1.1372066 0.7670855 0.784396 -0.24031702 0.34133443 -1.4907571 -0.30894044 -1.1098896
7-7 -0.18366762 -0.3805302 -0.22865215 -0.39620164 -0.4831298 0.99707377 -0.2568544 0.5796037 -1.2129194 -0.021130096 -0.57910496 0.8367903 0.9236264 0.4741258 0.7814592 -0.43060145 0.3649778 -1.4551367 -0.24391145 -1.1575127
29-18 0.86267513 0.6523667 -0.6254159 0.7712467 -0.5455882 0.91409254 -0.21341373 0.56525254 0.1851191 0.53677434 0.54716957 0.54455465 0.07554789 -0.40538514 -0.1361176 0.23849846 0.07655192 -2.29076 0.38684115 0.008210259
97-1 -0.22400087 -0.31696108 -0.47626728 0.061577704 -0.47434837 0.14858682 0.63952404 1.2841914 -1.0447841 0.4982041 -0.34063601 -0.9530639 0.1551836 0.12847894 -1.3454792 0.3511683 0.73033947 -1.301617 -0.6868042 -0.4305663
96-5 0.78826624 0.64012927 0.14600058 0.4633616 0.38307893 -0.38866094 0.21568672 0.8847069 -0.6610443 0.6344682 0.7187804 -0.14947443 0.48613662 1.0117412 0.6530258 1.2502906 -0.004196862 -0.8896088 -0.24703413 -1.4580353
96-10 0.81184524 0.4091111 -0.8163605 0.7347518 -0.7719146 1.077363 -0.3477929 0.59437215 -0.17667338 0.52066433 0.024365405 0.40476558 0.13133211 -0.39028382 -0.27280086 0.28965887 0.27797627 -2.130402 0.5005764 -0.18529835
92-11 0.4648407 0.37156805 0.042585675 -1.3029528 -1.0854787 -0.11884573 0.0059126765 -0.009428556 -0.5851092 0.7625137 1.1999782 -0.41503322 -0.8660288 -0.25440866 0.15450567 -0.27095154 0.81993127 -1.3140107 -0.23970854 -0.9707292
53-6 0.4928051 -0.46642575 0.53290445 -0.3953744 0.23911056 1.2569286 0.24577461 -0.045876447 -0.46116892 -0.23117797 1.4949341 -0.79336774 0.33740342 0.73836184 0.121060506 0.74265236 0.52506876 -1.6332055 0.0067932317 -0.2337504
18-6 0.2028935 0.4327776 0.23805907 -0.88983107 -0.9349601 -0.2374211 0.22698489 0.050710414 -0.5374854 1.0871885 0.9382598 -0.31675735 -0.8106508 -0.6089094 0.19078568 -0.45734754 1.0355926 -1.2969507 -0.3161769 -1.2471993
37-18 0.99854696 0.22919735 -0.90950567 0.584533 -0.70508766 0.9494311 -0.37317905 0.54180074 0.4017634 0.6735017 0.5865345 0.39409035 0.19327742 -0.5846876 -0.12289235 0.35128227 -0.060017068 -2.095155 0.4792761 -0.30481285
91-14 0.6509611 0.37988433 -0.15057807 -0.89377666 0.40586933 0.3159897 0.068830125 0.18439172 -0.17360538 0.075964205 -0.5726698 -0.45637926 0.40259272 -1.212777 0.6364932 1.2245317 -0.001982237 -1.6685425 -1.1049961 -0.5800727
96-4 -0.17168267 1.2769605 -0.26494724 -0.59381545 1.1398811 0.4220472 -0.30693847 0.7678962 -0.34303007 0.19641957 0.41665876 0.09873339 0.16266137 0.21472192 -0.65295523 0.784777 0.22690828 -1.0274882 0.06609413 -1.8199267
93-11 -0.53987247 1.3456202 -0.006524973 -0.8974088 1.0034493 0.39606342 -0.5748242 0.73617524 -0.26126528 0.005609196 0.35650998 -0.0029240781 0.29843768 -0.15236971 -0.5440651 0.51950365 -0.006696292 -1.3505132 0.41046077 -1.4480307
49-4 -0.016200004 -0.022825554 0.16799031 -0.20335922 -0.7674423 0.8499379 -0.6892583 0.8327329 0.8473165 -0.205026 0.80355734 -1.1773304 0.9588061 -0.012499298 -0.02976643 -0.099533245 -0.22159137 -1.0422686 -0.46694934 -1.6802511
70-19 0.23372953 -0.43686187 0.48067513 -0.67444026 0.25193676 1.3099675 0.11922462 -0.13344635 -0.5359715 -0.43098953 1.2421803 -0.9367798 0.1102164 0.44697157 -0.14098784 0.86420476 0.51404923 -1.752795 0.36676714 -0.58326495
70-15 0.15588653 -0.3173962 -0.18948357 -0.6583476 -0.50424665 0.8527941 -0.85625094 0.68522525 -1.3247691 -0.17300223 -0.54288644 0.75280464 0.70302945 0.46089822 0.9716166 -0.28797552 0.16288625 -1.5416341 -0.46834442 -0.8231197
91-6 -0.7693016 -0.29063955 -0.30729395 0.3281666 -0.5690989 -0.22617352 -0.41898176 -0.23832892 -1.2395834 0.44146428 0.9493032 0.20521398 0.035076942 -0.14824453 -0.6105249 0.59646183 -0.7089536 -1.7049582 -1.3619325 -0.46756524
28-5 0.25948077 -0.20089588 -1.2330531 -0.22083516 0.8952319 -0.6273757 0.019541116 0.28613728 0.13416429 -0.35987943 0.537189 -0.18948728 0.48757574 0.25559124 -0.36630002 -0.5275046 1.4140005 -1.839946 -0.46910864 -0.77552915
6-18 -0.15452665 0.033475738 -0.083189316 -0.20799774 -0.6707489 0.23719618 0.4589578 1.5739013 -1.0862181 0.6616175 -0.16706692 -0.8671363 0.43878993 0.16888471 -1.2723867 0.58339906 0.5361653 -1.3005804 -0.71727675 0.09151662
31-11 0.30958968 -0.876067 0.50057566 -0.7818131 0.04072429 1.1952878 0.14488597 -0.29527655 -0.31912085 -0.21202113 1.0710913 -0.7274056 0.24859221 0.5570317 -0.10084141 0.9665492 0.5846341 -1.8060396 0.35886565 -0.41913342
66-6 0.57719326 0.054925565 0.09932354 0.7567506 0.055187777 -0.46555668 0.52316564 0.97151196 -0.39403662 0.59482026 0.905395 0.03050404 0.20585719 0.9195989 1.0531996 1.151123 0.35685626 -0.9877671 -0.52936816 -1.379942
81-16 -0.105984814 -0.42090124 -0.37198266 -0.3289982 -0.5533751 0.2447839 0.19559327 1.61064 -1.0733142 0.6870179 -0.29714382 -0.8474002 0.11070842 0.21866648 -1.2470508 0.71509373 0.33899102 -1.2500571 -0.7018253 -0.16952242
53-12 0.027978597 -0.41632092 0.7546196 0.119929396 0.10905216 0.034250632 1.2659837 0.28593814 -0.43504333 0.33753243 -0.25654027 0.030109862 0.18037502 -0.3347575 -0.5197084 -0.8896471 -0.29341894 -1.9475491 0.04117461 -1.469788
64-3 0.8187667 0.41825628 -0.5786219 0.6523565 -0.90046823 0.938667 -0.5500064 0.34567326 0.038223535 0.44004604 0.15613626 0.784938 0.116971895 -0.3048209 -0.18384768 0.43972948 0.23710628 -2.1848419 0.581882 -0.3500077
49-8 -0.19361755 -0.51905453 -0.36114576 -0.7125992 -0.58852434 0.9872689 -0.41388458 0.60724604 -1.1205486 0.20046988 -0.38588297 0.93699616 1.0478144 0.47906026 0.86798316 -0.15216675 0.25270334 -1.3421718 -0.28918427 -0.9722472
42-6 -0.073243745 -0.36785224 -0.087660044 -0.58665395 -0.5779848 0.90290654 -0.61828995 0.4299894 -1.3771665 -0.029536778 -0.3034216 0.52212936 1.2487106 0.60604066 0.8301832 -0.2748556 0.40498042 -1.4656316 -0.1090224 -0.82484585
37-9 0.99233747 -0.076983705 0.28233162 0.53232497 0.1583655 -0.007902345 0.75732434 0.67242664 -0.5548432 0.7118762 0.79434156 -0.25188747 0.09669817 1.1467097 0.74866056 0.9026604 0.0132861845 -1.060256 -0.43380526 -1.4333472
21-15 0.33676642 0.5987045 0.07371611 -1.1073478 -1.1398616 -0.40491647 0.15387417 0.08660843 -0.37666506 1.0844506 1.0080082 -0.2553848 -0.8045431 -0.03302101 0.23844168 0.028295161 0.91636163 -1.2125417 -0.29728392 -1.157898
19-9 0.3212721 0.45802653 0.07587809 -1.1762414 -1.0333223 -0.045677822 0.11579937 -0.28458786 -0.52066797 0.8020052 1.0126226 -0.5630318 -0.8319 -0.41952908 0.3848521 -0.0047213733 1.0104165 -1.3286891 -0.4335418 -1.0421226
62-2 -0.14719617 -0.3482013 0.90795696 -0.24980757 -0.76107126 -0.59082717 0.13304836 -0.35883737 0.5429162 0.43746728 -0.39328387 0.5302164 0.31627202 0.6086444 -0.87604535 0.724735 0.09766641 -1.9747702 -0.34320822 -1.1307888
47-19 -0.8947431 0.04630217 -0.3379969 0.1380921 -0.60511124 -0.118938595 -0.25514635 -0.5889138 -1.0329354 0.6944036 1.2079443 0.15412895 0.036261097 -0.16804329 -0.3725563 0.55064183 -0.47840205 -1.5967548 -1.2919078 -0.5913476
14-14 0.98639166 0.0020308704 0.28291547 0.5712203 0.14042144 -0.58981043 0.1307347 1.0694125 -0.48252448 0.61253846 0.7924159 -0.020248974 0.04677012 1.1159358 0.7874494 0.98894405 0.051784575 -1.0534515 -0.5520309 -1.3082137
92-6 -0.6602031 1.1670772 -0.18270345 -0.7558809 0.74129075 0.7207295 -0.40696084 0.86450094 -0.004119998 -0.15178236 0.7012132 0.02539528 0.19036272 -0.34186867 -0.506125 0.7747745 0.0012253172 -1.0387554 0.19562754 -1.8053391
86-14 1.0232649 -0.858022 0.112366825 -0.82656133 -0.14062706 -0.5959431 -0.25049537 1.2067988 -0.78992033 -0.67407376 0.6358944 0.40672705 -0.602849 -0.006213515 -0.65510446 -0.017553767 -0.7766565 -1.495586 -0.58802825 -0.81741905
61-17 0.608297 0.24473704 -0.10550421 0.6949821 -0.085483655 -0.40835315 0.5546558 0.7451919 -0.50296503 0.6163704 0.8340692 0.14340796 0.2141416 1.1160191 0.80949384 1.2835339 -0.09956279 -1.0601324 -0.6617828 -1.2635971
90-11 0.3987087 -0.63089526 0.24492875 -0.39396307 -0.07842198 1.4470484 0.093726695 -0.014177096 -0.75776756 -0.31607872 1.0616816 -0.8672257 0.09677084 0.358694 -0.22007355 0.84082615 0.6036535 -1.8507944 0.43825635 -0.25183862
25-10 0.9588503 -0.51299536 -0.03556462 -1.2308508 -0.39690363 -0.7897403 -0.49757117 1.1191525 -0.6881671 -0.49543214 0.764675 0.3438402 -0.69389826 -0.039215952 -0.40844685 0.15464862 -0.57903767 -1.3868221 -0.45220363 -0.70788616
32-13 0.057839494 0.7796797 0.54721725 -0.51328087 -0.13086593 0.38756007 0.79281396 1.0917014 0.16168135 0.13979499 1.024339 0.6161923 0.8368465 0.06159032 -0.036250666 -0.094860576 0.29750538 -1.4045126 -1.5545977 0.25667048
2-16 0.027605703 -0.51975787 0.7678851 0.2723521 0.13147542 -0.13865067 1.1496544 0.40734956 -0.66085917 0.33529484 0.09259204 -0.028876282 0.5444439 -0.70061314 -0.5626833 -0.93479675 -0.0539824 -1.6525697 0.059167024 -1.5459143
99-11 -0.30900002 0.05311068 -0.17591222 -0.6181326 -0.36501208 0.9093323 -0.6842955 0.48811087 -1.404574 0.05573771 -0.41154543 0.6956857 1.2354954 0.4534383 0.69982606 -0.22273567 0.3067527 -1.366799 -0.12601708 -0.9833738
26-7 0.1727419 -0.36359552 0.55043167 0.16741557 0.09602915 -0.045475416 1.2453727 0.08813884 -0.47382605 0.11222516 -0.19365992 0.09292366 0.2975968 -0.32516286 -0.7885045 -0.92381895 -0.016375566 -1.8302594 -0.11616889 -1.5769734
30-18 0.0932066 -0.68970484 0.88419914 -0.7210734 -0.62924886 -0.23210257 -0.037696574 -0.22350802 0.7842435 0.3736817 -0.22157204 0.46386856 0.42382848 0.62014955 -0.74418885 1.107387 0.40887508 -1.8744364 -0.0026518507 -0.87400454
2-6 1.0574313 -0.2719759 -0.091868654 -0.8217407 -0.08942232 -0.74665576 -0.45865142 1.2357702 -0.609296 -0.9189501 0.9033499 0.386771 -0.5075166 0.21927406 -0.57478344 0.0019056816 -0.40164924 -1.5775464 -0.83296186 -0.43501928
27-5 -0.9786532 -0.22821645 -0.46140268 0.25009975 -0.5738893 -0.21196462 -0.20151097 -0.25418645 -1.1185051 0.11983449 1.1593472 0.44466364 0.1040329 -0.0712278 -0.4297835 0.68853515 -0.78514355 -1.6096983 -1.2418972 -0.6323735
95-2 -1.0165627 -0.06494238 -0.23494183 0.24756959 -0.42343545 -0.47542527 -0.27096087 -0.43466723 -1.1116544 0.47862002 0.9780858 0.05241591 0.5482523 -0.113756776 -0.27608043 0.4628493 -0.917533 -1.8127491 -1.0397624 -0.36519527
23-16 -0.036336362 0.03320045 -0.16338414 0.12905458 -1.0049366 0.5104438 -0.71247274 0.98642296 1.0776587 0.08839448 0.72168654 -1.0570997 0.82319677 -0.12371467 0.16131301 -0.28727666 -0.3998613 -1.2952037 -0.4077163 -1.3096191
30-1 0.87944317 0.44260424 -0.7056354 0.73476607 -0.8884322 1.0520556 -0.65983677 0.56420594 0.18176174 0.3074952 0.2772299 0.45452955 0.1494352 -0.46112013 -0.08646458 0.2561793 0.028952388 -2.0678632 0.45419303 -0.53942984
49-5 -0.41955248 1.0578609 0.072399974 -0.7199276 0.9626645 0.7128534 -0.24893863 0.71630603 -0.16807888 -0.053783875 0.29435477 -0.041382343 0.2373757 -0.32262403 -0.7767492 0.3077316 -0.13759618 -1.1487799 0.21686815 -1.935904
73-3 1.0713888 0.46725965 -0.038095877 0.72072554 0.06705952 -0.39976346 0.38222697 0.76128703 -0.3720722 0.7339814 0.67306626 -0.1783646 0.26147732 0.86972183 0.9216102 1.166922 0.023129145 -1.2119521 -0.567854 -1.2249134
48-6 0.2108636 -0.6100154 0.7256169 0.040936198 0.109924674 0.49729848 1.2062774 0.17587918 -0.84234315 0.13446338 -0.054922953 0.045519374 0.34181297 -0.3437749 -0.35703287 -0.9627216 -0.06933323 -1.7002404 0.06938632 -1.545706
89-8 -0.81105566 -0.14817907 -0.2607571 -0.39372715 -0.9647498 0.038998347 1.1497775 1.2449666 -0.002367228 -0.8542199 0.40636808 0.7063168 0.30664292 -0.3169631 0.13359563 1.210317 0.4539724 -1.1425794 -0.19342999 -0.9884339
87-3 0.27624676 -0.6176083 0.28920352 -0.7873535 0.2888127 1.3487478 0.0386759 -0.10007956 -0.57701045 -0.13260528 1.2594838 -0.8939752 0.23475288 0.47816908 -0.12691039 0.883957 0.46573415 -1.6359409 0.37766993 -0.49874488
75-16 -0.1511874 0.5693741 0.34655643 -0.3999853 -0.63941073 -1.0249704 -0.051926672 0.33394745 -1.3116897 0.02466507 0.6461304 -0.4984659 1.6996053 -0.45799574 -0.43852556 0.46628448 -0.00022579981 -1.3535339 0.3941345 -0.46338147
59-16 0.71098673 0.25477692 -1.4366311 -0.16522641 0.4919096 -0.59929836 0.05228548 0.058001682 -0.029298183 -0.40261194 0.5458132 0.021309096 0.8376321 0.2464838 -0.5152333 -0.34554556 1.220373 -1.7508153 -0.23836529 -0.79952204
58-12 -1.1048974 0.3455731 -0.24583045 -0.32128003 0.4679554 -0.15466182 -0.16669478 0.9351358 0.111234546 0.5376813 -0.12153035 -0.4531999 0.17114846 0.460815 0.6852582 -0.35629246 -0.37198383 -2.3451874 0.273199 -0.3067566
66-4 -0.16823277 -0.61199385 -0.30299014 -0.5067777 -0.30771977 0.88895935 -0.7422362 0.75420403 -1.1312718 0.24387331 -0.28826988 0.86059767 1.1294464 0.4791906 0.82927644 -0.25952408 0.44504026 -1.3334138 -0.2939771 -0.8779184
29-3 0.65703046 -0.22736667 -1.2473425 -0.49992207 0.6788234 -0.36523265 0.08032553 0.056615688 -0.056239724 -0.6206246 0.72078604 -0.14344941 0.433441 0.68428993 -0.5404083 -0.34210566 1.1403271 -1.6817288 -0.5853864 -0.8438322
26-14 -0.05446064 0.417054 0.47374138 -0.37117565 -0.58605886 -1.0681106 0.058433037 0.6118088 -1.0116438 -0.18422356 0.82288855 -0.11685091 1.66562 -0.61906916 0.06973336 0.43845245 0.48264852 -1.3154589 0.64643604 -0.50879264
44-2 0.25035277 -1.3316073 -0.8483738 -1.3502163 0.027753292 0.47811094 -0.12679207 0.8253715 0.18885267 1.0255429 0.45067313 0.19349979 1.0039701 -0.17127803 -0.020006781 0.5144515 -0.40055585 -1.0054067 -0.30732262 -0.80740947
45-11 1.0675713 0.2808878 -0.30471817 0.7265453 0.18162143 -0.41348207 0.4476837 0.7298706 -0.25029707 0.6682124 0.7482975 -0.031047767 0.3325682 1.2304413 0.71241474 0.96139634 0.26292813 -1.1901299 -0.42319193 -1.2911146
73-4 1.0235999 0.36978945 -0.6377315 0.8720998 -0.53676015 1.0588553 -0.3092396 0.44025853 0.06755419 0.47269875 0.69362205 0.39534584 -0.07524003 -0.30138618 0.062234566 0.5249109 0.049669966 -2.1617534 0.583904 -0.40354195
76-15 0.2890089 0.7168612 -0.096148685 -1.112738 -1.1563585 -0.09936745 -0.012556384 -0.0056395 -0.28297713 0.9731089 0.7963292 -0.5115629 -0.6610064 -0.5394381 0.3700341 -0.13374904 0.78129363 -1.2183394 -0.5903808 -1.1207978
69-15 -0.2427661 -0.06891082 -0.15483397 -0.6266946 -0.32191256 0.97882134 -0.5395955 0.650732 -0.97948533 0.18154295 -0.40736288 0.83614147 1.0836569 0.6980554 0.9502722 -0.4637203 0.32551345 -1.6092995 -0.42191783 -0.6137968
84-17 0.25293022 -0.61930853 0.26275083 -0.37317178 0.18027693 1.1354606 0.016680112 -0.113086276 -0.3702912 -0.32580402 1.0986099 -1.0093409 -0.1001245 0.47566333 0.17955479 0.71033704 0.37700307 -2.1137726 0.58678514 -0.14589709
77-5 0.14489098 -0.44076008 0.8439909 0.07400543 0.074779816 0.13804288 1.3762476 0.11322505 -0.77969456 0.1969585 0.21487631 -0.23625372 0.5092491 -0.53836244 -0.62451756 -0.7842211 -0.2570416 -1.7584462 0.120819524 -1.4064293
48-14 0.14320554 0.60030305 0.31959105 -0.41455838 -0.50298125 -0.9623626 -0.05105112 0.14143674 -1.1311594 -0.02495668 0.6057517 -0.4232738 1.7878945 -0.7545355 -0.031266063 0.53849417 0.034472007 -1.4810464 0.3157517 -0.3734981
53-3 -0.2076921 -0.22776186 -0.01668814 0.08589608 -1.0038937 0.42439258 -0.6641451 1.1153841 0.9341117 -0.2597497 0.79939204 -0.8896504 0.8627817 -0.4262414 0.19421299 -0.067185864 0.029271025 -0.9326824 -0.5982314 -1.5683863
9-8 -0.79067135 -0.5191929 -0.3152966 -0.39793292 -0.51814514 0.061066393 1.0495629 1.3995382 -0.017110635 -0.7317956 0.78289145 0.8675591 0.36890575 -0.608301 0.41165555 1.0025748 0.421658 -1.0420105 -0.24177295 -0.9867852
8-18 0.16257487 0.15900902 0.0779722 0.11283458 -1.0151438 0.22494261 -0.7265075 1.0265243 0.6866213 -0.060045734 0.7624953 -1.0360262 1.1896626 0.025172776 0.14146163 0.01888679 -0.39180878 -0.9187022 -0.46905905 -1.6331469
17-9 -0.20650147 1.36505 -0.39760074 -0.63653445 0.97328055 0.7639357 -0.47431016 0.6094999 -0.15220244 -0.012047867 0.4524092 0.17044047 0.08697455 -0.16399026 -0.727957 0.5896785 0.16270936 -1.3842113 0.34224665 -1.6002516
28-19 -0.35803398 -0.2509866 -0.3131166 -0.31251448 -0.5287554 1.0280132 -0.7147429 0.3695647 -1.2830039 0.08620049 -0.27668142 0.76981515 1.0480881 0.53825384 0.7908006 -0.27465835 0.23221086 -1.467837 -0.53925985 -0.93700635
74-10 0.11228981 0.50172347 -0.03284938 -1.2643551 -0.9890002 -0.14171763 0.11297596 0.013907204 -0.3978013 0.95026374 1.1177708 -0.6040308 -0.78288823 -0.076781794 0.3641118 -0.21453452 0.9522071 -1.4331487 -0.020333799 -0.8807109
10-12 0.34709334 0.7073857 0.5896265 -0.35094485 -0.4483815 -0.86789495 0.2234651 0.5899018 -1.1094029 0.09807069 0.96489805 -0.21751845 1.8517861 -0.14021909 -0.0166539 0.3377637 0.1377118 -1.2412708 0.5090004 -0.41427287
11-5 0.26161948 -0.44541147 0.13112397 -0.5832215 0.42135534 1.225895 -0.07501769 -0.27121615 -0.53547883 -0.5600839 1.0824833 -0.851546 0.19412668 0.50492156 -0.15166685 0.717061 0.67008525 -1.7241867 0.34437925 -0.6127555
22-1 1.1067073 0.14940886 -0.11086884 0.46179536 0.20705658 -0.5543946 0.42768478 0.9117078 -0.43016148 0.40530705 0.77682686 -0.026344968 0.061919726 1.1949513 0.78251654 0.9272884 0.15600078 -1.0704172 -0.6458739 -1.3244596
6-14 -1.0256519 -0.3437502 -0.0041138604 0.39181978 -0.44949025 -0.22745675 -0.44544894 -0.5730984 -0.8973349 0.53883415 0.9069016 0.40249062 0.25698283 -0.1155956 -0.5304543 0.7464795 -0.50160056 -1.791431 -1.1694509 -0.5819888
80-6 -0.06729096 -0.92750466 0.5631187 0.29515874 0.44900683 -0.49820882 -0.889795 1.2498395 -0.27129915 0.56767195 1.0118092 0.46924746 0.17067382 -0.9552162 0.111104526 0.19745763 1.0592183 -1.3323807 -0.3568293 -0.68113846
50-18 0.91315913 0.10314061 0.15145788 0.6280634 0.15345626 -0.19343571 0.6426392 0.8916283 -0.6211136 0.7588799 0.5762072 0.012733268 0.33000892 1.1526186 0.8413345 0.6554626 -0.047524504 -1.0133693 -0.4408968 -1.550922
38-4 1.2117935 0.5036886 -0.72043884 0.51580024 -0.9325873 0.62519765 -0.49920276 0.54204667 -0.11439349 0.28530604 0.5777379 0.5772079 -0.41566664 -0.6056702 -0.19736472 0.21784464 -0.038797207 -2.1698148 0.4762454 -0.36499485
55-11 -0.00025203577 0.9044419 -0.081251405 -1.1659678 -0.99041164 -0.14312144 0.26362932 0.2322346 -0.36213315 0.7634542 1.0844424 -0.13331354 -0.7723619 -0.5173803 0.2719493 -0.11725063 0.92561156 -1.1076434 -0.18688454 -1.3729888
94-14 -0.093880095 -0.33782575 -0.02320379 -0.4842934 -0.8355033 0.945594 -0.85056806 0.4353744 -0.71977574 0.015504743 -0.56172144 0.6837114 1.1865916 0.73775274 0.7811031 -0.16071416 0.485878 -1.3875314 -0.40118057 -1.1708988
35-9 0.40670115 0.5450585 -0.28607938 -1.2418624 -0.94886136 -0.43323487 -0.028720452 0.103286974 -0.44213954 0.7480665 0.9501653 -0.30947804 -0.82501316 -0.27884322 0.008370947 -0.40026006 0.9143201 -1.2300986 -0.43522695 -1.0974512
11-1 0.056049723 -0.23889363 -0.259139 -0.19606918 -0.5848346 1.0514189 -0.48743477 0.5557072 -1.1161412 0.12788601 -0.52632993 0.7928767 0.96180165 0.4276891 0.7249509 -0.5584462 0.37948847 -1.5229 -0.21981904 -1.0261484
98-0 0.72232836 0.50862724 -0.74672943 0.77941424 -0.6308846 0.72598374 -0.31262264 0.48429954 0.1471074 0.6051286 0.48847932 0.4500143 -0.13388869 -0.43278646 -0.059249744 0.29986754 0.05786532 -2.3279815 0.6438194 -0.25357118
92-15 0.35972574 -0.11037762 -1.1901615 -0.48157045 0.5483865 -0.49664897 -0.08759723 -0.06598754 0.09160662 -0.415329 0.082688086 0.21670555 0.58375347 0.652804 -0.46497068 -0.35814765 1.3145933 -1.7800094 -0.6133878 -1.0577154
27-14 0.5392655 -0.7895819 0.3208624 -0.7203207 0.24032706 1.27684 0.102484435 -0.16582806 -0.42784932 -0.33147323 1.0658345 -0.89173067 0.28012183 0.08107559 0.096581325 0.8867622 0.41134956 -1.7033507 0.2377318 -0.3170114
22-8 1.0016383 0.22373809 -0.8957999 0.61144215 -0.67741406 1.0246594 -0.35610074 0.52238506 0.37284398 0.70958066 0.56837547 0.30911073 0.24772021 -0.6605762 -0.052082315 0.37468573 -0.09749934 -2.0114887 0.5517183 -0.44908762
80-10 -0.099988185 0.014117785 -0.34615064 -0.0572842 -0.74494416 0.24093679 -0.77694845 0.9646964 1.0745496 -0.07456929 0.7364695 -1.1191957 0.9123886 0.024962021 0.13129224 -0.40311077 -0.19465138 -1.2046151 -0.5198408 -1.4738247
1-19 -0.35816175 1.270601 0.07592786 -0.85735124 1.1162107 0.61423993 -0.44176596 0.6612452 -0.25616658 0.007449414 0.18948689 0.025082879 0.12349784 -0.41573802 -0.5713361 0.7481013 0.12000805 -1.2888969 -0.04813648 -1.6779028
0-5 -0.15796837 -0.18918248 -0.02388652 -0.2155876 -0.60832006 0.49636978 0.46839663 1.5021566 -1.0236706 0.5512314 -0.047000833 -1.0622133 0.24657398 0.39947483 -1.2022291 0.52826345 0.61892486 -1.2814497 -0.72379965 -0.03242022
86-16 -0.30267376 -1.0333536 0.46013394 0.2134617 0.41133708 -0.22971696 -0.9505056 1.1369548 -0.5220156 0.7320351 0.8185055 0.7083163 0.37406585 -0.87931955 0.37977666 -0.0102719385 1.1270187 -1.2988766 -0.38734964 -0.78488654
88-3 -0.29352206 -0.7743811 0.8109745 0.56827116 0.4464966 -0.54398924 -0.6006494 0.95213825 -0.33573538 0.4849601 0.9027149 0.28865176 0.40356982 -1.146634 0.1409676 -0.055621337 1.0621896 -1.4562879 -0.2534743 -0.8540405
66-13 1.0634257 0.5102529 -0.9713787 0.7642405 -0.6298351 0.4776312 -0.3104455 0.28744814 -0.029588725 0.29489508 0.47806796 0.494695 0.505301 -0.537169 -0.26816288 0.2640431 0.19783013 -2.1140213 0.7070428 -0.2802782
67-4 0.93571824 0.2636668 -0.07472845 0.8615307 -0.101400785 -0.166097 0.21230939 0.98019964 -0.18429536 0.7504487 0.79461837 -0.1954582 0.3020394 0.9771198 0.8162085 1.0555894 -0.07793037 -1.0228097 -0.4409827 -1.4431329
47-16 -0.11538127 1.2548592 -0.123992324 -0.6592291 0.86339617 0.64872766 -0.6281164 0.8740389 -0.21657205 -0.043569785 0.39033067 0.2535471 -0.076232485 -0.23928727 -0.79194045 0.67690414 -0.2038365 -1.307858 0.33214638 -1.6176922
1-15 0.9466602 0.5848246 -0.5929252 0.6544731 -0.7627464 0.9461173 -0.3731926 0.29991555 -0.072998025 0.42112562 0.79641646 0.24819879 0.22696094 -0.47468075 -0.18081254 0.36073458 0.12709771 -2.089464 0.7930461 -0.25180575
27-7 -0.007241287 -0.34123337 -0.19769633 -0.56262094 -0.74384445 0.8627969 -1.0041796 0.799218 -1.0305824 -0.21160989 -0.42042905 0.61424947 1.0175723 0.65251404 0.77361816 -0.51681185 0.12883848 -1.3862431 -0.46372953 -1.0919008
75-13 0.2574234 0.12402036 -1.3709472 -0.41439945 0.91661406 -0.603122 0.15265487 0.21271057 0.11626713 -0.3119888 0.39069936 -0.18062012 0.42217574 0.48218915 -0.48533243 -0.41235003 1.051614 -1.7857932 -0.44961128 -0.986784
89-4 -0.31336904 -0.6551388 0.5476497 0.85009354 0.42529947 -0.5710257 -0.8741743 0.89730877 -0.40482962 0.728827 1.069032 0.35890862 0.24881898 -0.70220184 0.29103595 0.35773903 1.0488311 -1.347339 -0.5911376 -0.8273687
87-1 0.56251997 0.16955082 -1.3467387 -0.4537124 0.8672641 -0.41496858 0.17128094 0.063067034 0.029924905 -0.4936549 0.1677395 -0.10306607 0.4809633 0.1911773 -0.3273905 -0.22639745 1.1548549 -1.6832423 -0.75111026 -1.102302
86-2 -0.020223064 -0.13353117 0.8672636 -0.46041998 -0.55265373 -0.5504852 -0.09661283 -0.12072153 0.83448905 0.29875407 -0.700354 0.3150911 0.33606556 0.47915736 -0.40657404 1.0025592 0.3062734 -2.0403838 -0.37868574 -0.83628094
38-8 -0.33417386 -0.26848605 0.08049809 0.17367119 -0.9274979 0.41078657 -0.9435524 0.7679943 0.7920123 0.05447326 0.86461145 -0.89731556 0.88308287 -0.248883 0.0339024 -0.15382211 -0.3807746 -1.048499 -0.9698597 -1.6397735
3-17 0.66540825 -0.5896835 0.33379766 -0.23945668 0.08922814 1.268547 0.12797163 -0.06998289 -0.67064285 -0.21078515 1.2484846 -0.9278348 0.13787147 0.5893194 0.12923226 0.8568002 0.47258872 -1.7230707 0.48620397 -0.6130409
94-5 -0.24005124 1.3852763 -0.022022061 -0.6425147 0.9210497 0.8172141 -0.49278593 0.6500795 -0.15430538 0.09694476 0.24262206 0.030061878 0.053449385 -0.48791942 -0.53620785 0.8193435 0.021181012 -1.3443533 0.16982856 -1.6298975
61-7 0.33016676 0.5776023 -0.19669993 -1.1691748 -1.0079033 -0.38219255 -0.03132634 0.05969937 -0.5236628 0.7249353 1.0453819 -0.30910543 -0.8656287 -0.1689336 0.078102216 -0.34706727 0.9213495 -1.2161034 -0.3692104 -1.2103788
9-10 0.8306028 -0.58006984 -0.166776 -0.97797275 -0.16422968 -0.7192819 -0.53285635 1.0364618 -0.8174901 -0.59310824 0.8852387 0.26972675 -0.54251736 0.10427188 -0.530321 0.28244492 -0.7775631 -1.4563636 -0.7826618 -0.51025003
93-13 -0.13381529 -0.47845924 0.7690154 0.6235694 0.39058614 -0.6811852 -0.8287651 1.117293 -0.38448814 0.5481997 0.99671656 0.32542023 0.44546944 -0.729211 0.35134268 0.28138372 1.179037 -1.245454 -0.2254464 -0.8182097
94-17 -0.46513143 -0.07611693 -0.2779806 -0.3576253 -0.86220527 0.12429208 0.3522835 1.49959 -0.9967909 0.7804446 -0.33405352 -1.1148863 -0.048019063 0.28256845 -0.97534215 0.41983977 0.5902202 -1.4440733 -0.5782006 -0.10228956
60-9 0.9020356 0.5653684 -0.52214694 0.67938083 -0.7916252 0.86744905 -0.34745994 0.20588695 0.23938525 0.41452765 0.24184482 0.53019613 0.04277076 -0.6262495 -0.091610305 0.63165843 0.14585045 -2.2323604 0.39491358 -0.32438698
0-0 -0.40518695 1.2730726 -0.11846702 -0.9598893 0.8837478 0.657744 -0.42828128 0.6958892 -0.23830333 0.23782274 0.5391255 -0.06569963 -0.14514385 -0.1646148 -0.7063942 0.6035263 0.21495678 -1.1618952 0.119655915 -1.8052899
15-17 -0.5473615 1.0890539 -0.07360945 -0.7527989 0.99605185 0.6750547 -0.07731396 0.7687492 -0.22893894 -0.1019295 0.42226815 0.2407246 0.06498662 -0.3408578 -0.70015645 0.6118614 0.0152429715 -1.153146 0.18540435 -1.8551621
26-16 -1.0889747 -0.0065950123 0.048135407 -0.07581827 0.35344434 -0.43074378 -0.13818564 1.212277 0.09371723 0.66734815 -0.14437088 -0.66507506 -0.044918835 0.21494497 0.52898043 -0.22181466 -0.16688001 -2.43595 0.15154533 0.005912968
44-10 0.3647866 0.38786152 -0.14627697 -0.43523252 -0.041889466 0.30268377 0.4504079 0.40210545 -0.40257415 -0.2625459 -0.6897672 -0.56086105 0.21484561 -1.142044 0.6787397 1.283664 0.20181659 -1.7076249 -1.2746372 -0.4485913
41-9 -0.9779033 0.17318267 -0.25556588 0.06077126 0.1744728 -0.26001546 -0.113061786 0.66997963 0.16941172 0.62563175 0.093964644 -0.31883737 -0.033826433 0.2632717 0.60140336 -0.25358886 -0.62352526 -2.6256804 0.31129086 -0.05489734
74-9 0.33127093 -0.55454564 0.3652999 -0.77289546 -0.07584502 1.2779927 0.07740653 -0.24802406 -0.6953034 -0.21625929 1.1491042 -0.8938444 -0.051498525 0.55017525 0.30312857 0.4871351 0.7146462 -1.7347256 0.35931665 -0.567655
55-6 0.22595292 -0.60393125 0.14590085 -0.5967128 0.1580893 1.1005307 0.098966144 -0.22665937 -0.3947639 -0.39677075 1.0959532 -0.96949136 0.0900182 0.73171383 0.15399319 0.4863414 0.6569324 -1.9626805 0.37122858 -0.28035653
44-18 0.20115368 0.48104975 0.4369937 -0.5317211 -0.46768823 -1.1964425 -0.1522065 0.58065015 -1.0250912 -0.19585247 0.6347295 -0.32926452 1.6192526 -0.3577443 0.05918864 0.19870281 -0.037506465 -1.5557307 0.6760025 -0.43539867
0-8 0.5862886 -0.13921073 -1.412704 -0.48869362 0.4967369 -0.493604 -0.12700899 0.15528993 -0.21285163 -0.59080195 0.29445058 0.112906106 0.52296966 0.543886 -0.3610175 -0.5253417 1.1284885 -1.7116451 -0.6013041 -0.92929214
2-4 0.77524745 0.66179204 -0.683923 0.6972939 -0.81059587 1.0545099 0.029246863 0.579964 0.19527438 0.25053987 0.7725968 0.79174423 0.10476881 -0.6052185 -0.080482185 0.30510768 0.12806907 -2.0605352 0.3139986 -0.1550081
20-9 0.7988066 0.2956653 -0.010990194 0.43958792 -0.1421438 -0.2870903 0.4532712 0.79224163 -0.3912999 0.83313376 0.94290984 -0.36210853 0.20969407 1.1107632 0.9513486 0.80463344 0.15248506 -0.8724014 -0.5900093 -1.5053773
46-12 0.42856517 -0.6120896 0.39877462 0.14422685 0.04094839 0.3673176 1.3275892 0.3723562 -0.47915864 0.6421171 -0.0058452054 0.29785144 0.27559158 -0.71711236 -0.59345883 -0.83803755 -0.39741516 -1.7692729 0.10336382 -1.45994
97-0 0.4176742 -0.061080713 -1.4015993 -0.31600687 0.50613993 -0.5616427 0.16095167 0.35157102 -0.10375098 -0.36610022 0.21747433 -0.30639684 0.59713113 0.44618472 -0.8040282 -0.3024306 1.3549752 -1.5931376 -0.7701148 -0.93841547
70-16 0.86180544 -0.5208853 0.19503357 -0.94882536 -0.4880461 -0.6909704 -0.86777943 0.9352247 -0.7917138 -0.8522779 0.32206744 0.56822616 -0.46052662 0.38015303 -0.26388723 0.13462652 -0.47752768 -1.531339 -0.63487643 -0.75869834
5-12 1.024371 0.11963522 0.16273858 0.4111468 0.18225637 -0.26249358 0.510485 0.67845523 -0.43120617 0.64946055 0.62037104 -0.37067878 0.19306634 0.99455607 0.9735642 1.19205 0.026038738 -1.1334379 -0.5846411 -1.2840496
49-14 0.1658104 0.5239754 0.2949777 -0.41328543 -0.2982435 -1.1388375 -0.13947733 0.43814716 -1.0278252 -0.06751097 0.7050184 -0.3367306 1.8420359 -0.4890576 -0.2054232 0.1921619 0.49507427 -1.4245914 0.58843744 -0.54714763
39-9 -0.8396099 -0.31399438 -0.8850657 0.25167596 -0.18875532 -0.2839741 -0.22358184 -0.58029604 -0.9193469 0.48956668 1.0129875 0.2263543 0.33213636 -0.010292739 -0.5413756 0.41153505 -0.4771806 -1.6418844 -1.4235141 -0.6158689
99-4 -0.7998094 0.03384986 -0.25362566 0.2732597 -0.38366586 -0.03331969 -0.18962991 -0.44104096 -0.9658069 0.41102654 0.9281706 0.27629173 0.3796069 -0.21830544 -0.31518075 0.5581193 -0.7522842 -1.7093836 -1.6705394 -0.40057507
96-18 0.022741264 -0.27302086 0.522229 0.32248747 -0.012911256 0.13452038 1.1323775 0.45035505 -0.3375831 0.3440054 -0.0005526257 -0.31645828 0.32813117 -0.47127327 -0.46784687 -1.1879556 -0.40663147 -1.7836701 -0.08995742 -1.6058809
58-10 0.8701303 0.17227495 0.15547927 0.36772278 -0.10989127 -0.40268183 0.301577 0.7593772 -0.36617106 0.8130562 0.35910714 0.108251385 0.35603666 1.501704 0.95650464 1.1064435 0.0626328 -1.1849724 -0.49869943 -1.4137021
64-11 0.32650548 -1.3174497 -0.48057982 -1.2284106 0.34629938 0.36423802 0.13041587 0.89649796 0.21694072 1.2783943 0.826133 0.5090045 1.0075935 -0.37552196 -0.07830545 0.52419084 -0.16854537 -1.1751666 -0.4360294 -0.3798663
22-11 -1.0899665 -0.10178702 -0.44438106 0.1971761 -0.75468695 -0.18276827 0.013005536 -0.5003887 -1.0501208 0.38994786 1.1745796 0.34011534 -0.04122528 -0.2619321 -0.29623234 0.6249899 -0.5174826 -1.6179422 -1.2651707 -0.70595217
60-8 0.68013835 0.6652293 -0.19037408 -0.420181 0.21778512 0.49162295 0.0054340884 0.10882397 -0.21711993 -0.044610016 -0.5558585 -0.44902623 0.3779194 -1.1798644 0.70874614 1.158613 0.060590263 -1.8171405 -1.0589018 -0.5664697
68-17 -0.015698662 -0.07813138 -0.49132073 -0.051263407 -0.970995 0.34504172 -0.56526744 0.9607328 1.0924304 -0.3492201 0.7260376 -0.8551817 1.0262681 -0.14780647 0.08777825 -0.23362036 0.020577101 -1.0165386 -0.59365755 -1.6222025
66-15 -0.39152482 1.1445557 -0.26122046 -0.7330538 0.9559474 0.6421301 -0.5983512 0.6801058 -0.056270953 -0.055384174 0.4427641 -0.06150564 0.25244415 -0.18539314 -0.7323959 0.5226209 0.1417469 -1.1852413 0.14171614 -1.8423665
72-7 -0.09880092 0.7655709 0.54092246 -0.3353914 -0.101914525 0.39004523 0.65255535 0.93663436 0.10720041 0.11618553 1.2135383 0.71838796 0.7675022 0.15835981 -0.23075786 0.017854411 0.15011722 -1.5306598 -1.6195664 0.2968738
98-6 -0.22685942 -0.38544872 -0.19141783 -0.5846475 -0.5225809 1.1571097 -0.3285255 0.4589409 -1.119355 -0.21632591 -0.3102601 0.6607073 0.9290307 0.5638849 0.9199573 -0.16785367 0.52781206 -1.3834459 -0.250208 -0.92557544
36-8 -0.19315003 -0.6180898 -0.09851109 -0.4365921 -0.30147803 0.92079246 -0.74736965 0.68579024 -1.1863544 0.3550568 -0.28383347 0.82599294 1.1095586 0.41268432 0.8439154 -0.3170913 0.5526247 -1.3398798 -0.3520275 -0.87789595
6-5 0.77478516 0.55107516 -0.037874028 0.21483769 0.1228966 -0.39442503 0.3249319 0.8003227 -0.48039886 0.88476074 0.790465 -0.18585916 0.012467839 1.1328571 0.78598315 1.0367863 0.09131699 -0.9020076 -0.39082515 -1.564433
78-6 0.62163055 -0.2357341 0.016564263 -0.8823075 -0.059623703 -0.6569385 -0.6805174 1.0272527 -0.85835814 -0.83437365 0.76799726 0.30145657 -0.6778086 0.12687857 -0.61186516 0.3978934 -0.7946692 -1.4591758 -0.6583852 -0.8083662
4-10 -0.36120394 -0.64439803 0.79377145 0.48134276 0.3356951 -0.15765685 -0.8363052 1.0903852 0.028527616 0.559919 1.1210866 0.29311827 0.33639553 -0.8989058 0.10807383 0.015031796 1.1879395 -1.3116202 -0.48671404 -0.7352691
12-6 0.1715637 -0.4436319 0.29670033 0.250711 0.109239295 0.06009576 1.3268719 0.34993428 -0.6636158 0.28285855 -0.13221374 -0.22941843 0.3223391 -0.39601237 -0.8756927 -1.0030812 -0.035662733 -1.7295977 -0.16263506 -1.5600328
86-10 0.67295754 0.22452949 -1.4147327 -0.1329731 0.5618368 -0.3007243 0.12629306 0.30442676 0.22496271 -0.4150569 0.569299 0.1857398 0.506539 0.40898082 -0.5866236 -0.5179055 1.11269 -1.7908701 -0.61867654 -0.6575788
23-6 0.10521501 -0.35799113 0.67178464 0.08251167 -0.117139004 0.22501141 1.1144519 0.24354629 -1.0006106 0.20856409 -0.28396675 0.08498903 0.5602817 -0.44028115 -0.49453714 -1.0502787 -0.19815227 -1.7574419 0.101883896 -1.564819
20-5 -0.04367367 0.592132 0.71896976 -0.10961295 0.019333122 0.4264371 0.3890256 0.98810637 0.07569963 0.4352309 1.2650589 0.64915663 0.83406854 0.18248071 -0.19804722 -0.15969706 0.36618024 -1.522895 -1.5912031 0.30077574
80-9 0.4380781 0.054164574 -1.3765587 -0.40550107 0.7154309 -0.39825314 -0.13139595 0.34362397 0.27116188 -0.45353276 0.36637843 -0.22810803 0.5785382 0.35802796 -0.5959562 -0.42037398 1.124112 -1.5631092 -0.6415947 -1.2401911
4-7 -0.7839624 -0.02667653 -0.2115167 -0.46752575 -0.96258646 -0.1971478 1.1511192 0.9151708 0.015688052 -0.9074993 0.5299655 0.79703057 0.5187251 -0.33136946 0.29388267 1.0925435 0.36310357 -1.216869 -0.018244516 -1.0654233
84-9 0.69287574 0.12705772 -0.15787758 -0.73380023 0.16585043 0.3868218 0.060690228 0.092760555 -0.37914118 0.013976471 -0.5894489 -0.32797772 0.5653323 -1.1244547 0.8901808 0.9880667 0.06065392 -1.6930112 -1.2374362 -0.44997266
32-3 -0.03553971 -0.04276261 0.12584946 0.014097643 -0.6238721 0.51804274 -0.9318824 1.1095772 0.9075652 0.03244645 0.8078436 -0.9624151 0.8801836 -0.27181205 -0.002574675 -0.13250914 -0.13496752 -0.9129757 -0.65171444 -1.7025286
16-13 0.6107435 0.05602266 -1.3321942 -0.56937885 0.5150961 -0.66881824 0.052702755 0.12979501 -0.012791895 -0.44855604 0.5039959 -0.12003651 0.16075464 0.3729547 -0.3961883 -0.52701044 1.1660849 -1.688502 -0.60606873 -1.0613741
31-1 0.9871387 0.06369466 -0.014008801 0.45676768 0.022903064 -0.3953142 0.21672863 1.0124066 -0.6972984 0.5837476 0.5352212 0.018919593 0.18527131 1.2375966 1.0033287 0.89799744 -0.1646471 -1.0829611 -0.5454983 -1.3445561
13-10 0.22683632 -0.06944883 0.19915698 0.03819276 -1.0306872 0.41864455 -0.7578276 0.83220106 1.0391546 0.0913678 0.5944875 -0.91148245 0.91205335 0.177518 0.16676018 0.028630529 -0.26154584 -1.0506542 -0.75691897 -1.7393582
49-9 -0.5695991 -0.1442204 -0.4406456 -0.5177897 -0.7905678 0.042640585 0.8793275 1.2777449 -0.22170387 -1.0800964 0.60826266 0.9422556 0.28869072 -0.3497092 0.56551117 0.76306987 0.048667938 -1.129385 -0.18182144 -1.0813568
11-12 -0.3647528 -0.20275542 -0.27229884 -0.065649174 -0.5846565 0.12486546 0.36696506 1.492542 -0.9514086 0.6165072 -0.59433687 -1.098222 0.058496762 0.09371194 -0.8994387 0.6271693 0.33913124 -1.5046523 -0.69403636 -0.062074095
32-4 -0.33031422 1.0443225 0.106386594 -0.6862078 1.0107559 0.7024773 -0.43099618 0.79156977 -0.094012775 0.06732067 0.40610194 -0.086308055 0.18658663 -0.23232776 -0.76081556 0.28107038 -0.1223045 -1.1223538 0.11464229 -1.9449131
47-5 0.62442887 -0.007049579 -1.3849524 -0.2448168 0.745895 -0.5483289 0.075492315 0.09074563 -0.018818872 -0.31830135 0.40368736 -0.04683238 0.57223576 0.088850334 -0.36925417 -0.20967458 1.3837363 -1.6948446 -0.571188 -0.9452523
62-5 -0.0264857 0.496816 -0.09868595 -1.3449918 -1.3297923 0.029164664 0.20522873 0.12315915 -0.6050478 0.84247446 0.87009656 0.0046763867 -0.6780534 -0.19627292 0.48126322 -0.38445213 0.9207366 -1.1238247 -0.2741987 -1.3740076
49-6 0.15048468 -0.3733888 0.44612715 -0.13233238 0.4366357 0.34305173 1.1943718 0.3906344 -0.640871 0.48218083 -0.04388889 0.16045663 0.34352452 -0.6025202 -0.7709272 -0.7920473 -0.41166437 -1.5025679 0.0075435448 -1.8073095
15-1 -0.2610051 -0.30804163 -0.23500417 -0.3544857 -0.7370724 1.0708253 -0.7097407 0.46462527 -1.0531566 0.070449755 -0.29166397 0.5400675 1.2269015 0.590026 0.8288971 -0.31473976 0.16030018 -1.2779123 -0.6213229 -1.1213183
64-19 0.16314806 -0.50428987 0.6209418 0.26810053 -0.014275606 0.17484994 1.1868384 0.44250232 -0.32289186 0.19482712 0.05762521 -0.14516954 0.4156707 -0.52870345 -0.6186854 -1.0091872 -0.34277123 -1.6237552 -0.14232571 -1.7891895
10-15 -0.061780073 -0.6610359 0.31466797 0.7060401 0.47243974 -0.4325503 -0.9172218 0.82848096 -0.16137505 0.5023326 0.9744743 0.48859647 0.14516236 -0.90084773 0.07755316 0.069953054 1.4064184 -1.6209891 -0.3336079 -0.6116328
93-4 0.583178 -0.66387403 0.2191771 -0.52154213 0.04097883 1.1883606 -0.11286689 -0.009013218 -0.57648367 -0.5891264 1.2626429 -0.8158871 -0.060601 0.36907995 -0.102717616 0.7784871 0.42373115 -1.9065939 0.42007688 -0.2844336
58-16 0.052082814 0.6256635 0.41139558 -0.60077524 -0.8300024 -1.0278056 0.1807993 0.4663206 -1.020469 -0.019451281 0.7886351 -0.25190845 1.5257604 -0.55773807 0.1343388 0.25639948 0.25241745 -1.3012885 0.76601917 -0.70339525
40-12 -0.24825923 -0.25158796 0.055896163 -0.5558925 -0.6263133 0.74890596 -0.6337474 0.45537502 -1.1185491 0.15110931 -0.6096927 0.6897009 1.2951677 0.6594111 0.7166597 -0.16374773 0.4252291 -1.4700072 -0.10944096 -0.8651112
61-19 -0.12914352 -0.26740733 0.7781161 -0.48894697 -0.94997084 -0.59744066 0.12622291 0.11015035 0.8494111 0.07399945 -0.41586587 0.622699 0.3909544 0.53865534 -0.5492881 1.1224618 0.53826845 -1.8721504 -0.11476395 -0.99972486
11-9 0.2375459 0.25200525 0.17022069 -0.69565475 -0.58963287 -0.89068484 -0.0740895 0.6577642 -0.7625599 0.11273199 0.6494147 -0.5553831 1.9558295 -0.49985158 -0.109462634 0.2689545 -0.16375929 -1.1010984 0.6686502 -0.6763069
19-10 0.6410405 0.4766512 0.114641294 -0.74700373 -0.20157331 0.13432391 0.11744734 -0.14679863 -0.030478328 0.025537495 -0.7071158 -0.42584616 0.24847516 -1.0195982 0.75748533 1.0577163 0.2846902 -1.8249974 -1.2678394 -0.5624347
95-3 -1.1167239 -0.025038235 -0.09428456 -0.06536588 0.23333457 -0.45424467 0.08213642 0.6127037 0.0703653 0.5898829 0.039626103 -0.5224786 0.10075986 0.30432525 0.54976696 -0.31911972 -0.67767864 -2.5634127 0.13889982 -0.1684882
43-2 0.10015866 0.5512808 0.5309596 -0.50709283 -0.7434302 -0.84620345 -0.14664096 0.3541165 -1.0007423 -0.1158136 0.3798771 -0.10020701 1.9182124 -0.12071814 -0.101059236 0.3382018 0.22471485 -1.4481548 0.68065906 -0.5374391
69-17 -0.3767065 1.3081486 -0.08134395 -0.9563903 1.1938174 0.6577507 -0.3855534 0.71378887 -0.05573718 0.014800422 0.5133244 0.23680227 0.4090541 0.012048956 -0.7696329 0.372398 0.2609881 -1.2077466 -0.10344843 -1.5206616
34-2 -0.073448636 -0.18803391 0.6373881 -0.50448215 -0.5318483 -0.70016783 -0.064718895 -0.1106512 0.9514668 0.2735356 -0.5618938 0.3816689 0.36717695 0.6637949 -0.69765615 0.7237845 0.47769028 -2.0999181 -0.2652788 -0.9363491
40-3 0.39711285 0.6522166 0.054074023 -0.9110555 -1.0640993 -0.3076612 0.39195606 0.1278771 -0.4564796 1.1346464 1.018597 -0.34285396 -0.7755383 -0.16244383 0.20673685 -0.37417132 0.75383824 -1.184676 -0.3682239 -1.3097852
51-18 0.23278855 -1.1771771 -0.7072075 -1.4673278 0.52537507 0.5626085 0.10456988 0.7213818 0.0040810825 1.1252499 0.65580106 0.2866882 0.71657765 -0.26828775 -0.17100199 0.7586356 -0.39332554 -1.184431 0.0522762 -0.77344
64-0 -0.38666764 -0.20626538 -0.24809736 -0.04138092 -0.64468205 0.24211468 0.3055083 1.3308219 -1.1446767 0.6688463 -0.3333789 -0.92957777 0.20837414 0.22596993 -1.2871838 0.6682856 0.40965173 -1.3325789 -0.75596166 -0.2763555
31-6 -0.91598344 -0.12739044 -0.16306965 0.27297172 -0.32862848 -0.11408911 -0.4435718 -0.38936907 -1.060929 0.59215534 1.0423572 0.30128932 0.32237706 -0.21565571 -0.40587932 0.53019357 -0.5538062 -1.6817201 -1.4010919 -0.4095146
45-2 0.18870896 0.6888172 -0.049657464 -1.2416219 -1.0288342 -0.5226437 0.018493729 0.21737432 -0.4508916 0.8541363 0.90345985 -0.36748317 -0.9657436 -0.25182083 0.31280535 -0.4193284 0.5386671 -1.4418869 -0.23774745 -0.90902036
58-9 0.04891207 -0.29141524 0.93720734 -0.27575165 -0.6676193 -0.6950126 -0.19706206 -0.014636924 0.7658539 0.5784766 -0.29612285 0.59709936 0.34021848 0.7632763 -0.39386293 1.0758896 0.62307334 -1.7850063 -0.19966707 -1.2176366
72-11 0.8633638 0.47768006 -0.76845485 0.70075977 -0.6456723 0.8772401 -0.27037346 0.47305954 0.1722511 0.46345407 0.27310815 0.4016201 -0.0957927 -0.6883112 0.1199952 0.39940995 -0.032410517 -2.3377366 0.43624657 -0.23084901
82-11 -0.4274056 -0.196908 -0.29360753 0.013917853 -0.84406906 0.3707261 0.11587413 1.4566697 -0.94564825 0.5994216 -0.21340482 -1.1759993 0.20198813 0.17162047 -1.2059115 0.516307 0.38058937 -1.1862036 -0.89593834 -0.45440993
25-11 0.43782035 0.6753194 0.06958247 -1.2940222 -1.0780424 -0.2657816 0.09123813 0.22152705 -0.47527137 0.9078193 1.1012211 -0.15061021 -0.8605758 -0.17701183 -0.07063537 -0.43848065 0.759548 -1.2733955 -0.45963585 -0.9339738
76-19 -1.0142938 0.076071784 -0.036586326 -0.13139124 0.47521448 -0.4613812 -0.23348764 1.0313047 0.25704685 0.53991216 0.030018212 -0.45189795 0.061809946 0.25477326 0.67148316 -0.28001264 -0.14821422 -2.5819454 0.32700452 -0.086271144
67-11 -0.39270407 1.1468688 0.15214027 -0.65803933 1.1944929 0.63079697 -0.7012036 0.72607845 -0.11289175 0.1046008 0.32816353 0.090650246 0.10343069 -0.4685469 -0.55295694 0.7922283 0.2717992 -1.2510918 -0.037059154 -1.6708065
5-7 0.93655455 0.41661602 -0.5539393 0.8101542 -0.5935523 1.0446633 -0.16728099 0.38801637 -0.05311686 0.4385983 0.21474525 0.6719607 0.015712949 -0.5382165 -0.11638114 0.124024 -0.03842437 -2.1629035 0.53508914 -0.5430967
61-3 0.16575451 -0.618736 0.6176097 0.03606554 0.1556408 0.22017868 1.3647776 0.41463077 -0.5243036 0.53677976 0.1407218 0.2180365 0.61205363 -0.49481034 -0.7336677 -0.96939516 -0.4321292 -1.6784705 -0.13821805 -1.3392978
39-19 0.16811374 0.5484453 0.5141735 -0.47096682 -0.49542937 -0.9987348 0.22774819 0.48922688 -1.1168792 -0.027503062 0.679949 -0.38248187 1.7738589 -0.5928305 -0.016980082 0.14510493 0.10263632 -1.4340397 0.72958314 -0.7535976
33-14 -0.9479898 -0.45130128 0.014328551 0.34396267 -0.24075413 0.0052125314 -0.42195436 -0.5594857 -1.1136748 0.48509806 1.3315326 0.10999746 0.112995096 -0.16151017 -0.32200274 0.573518 -0.4970868 -1.7212323 -1.2931042 -0.5872648
62-7 -0.4487199 1.0301925 -0.06539738 -0.81550056 0.8070573 0.88577807 -0.7829721 0.79504395 -0.2318155 0.04741105 0.25131652 0.08574901 0.32403904 -0.02117577 -0.43073136 0.46028557 0.052130084 -1.0713192 0.21149465 -1.846917
60-1 0.15877657 0.63818204 0.3312496 -0.5876214 -0.87005913 -0.9431379 -0.09882127 0.53225255 -0.89012235 -0.038354103 0.75644964 -0.60113084 1.7388626 -0.54479104 0.0017143451 0.07945635 0.15450202 -1.2665142 0.567865 -0.6926142
51-17 -0.2870764 1.0450749 -0.11761518 -1.1226362 0.99663544 0.60156244 -0.5271507 0.76135015 -0.34685478 0.1999434 0.5358247 0.10142319 0.4855484 -0.27125224 -0.648422 0.77985996 -0.16838507 -1.0535904 0.35805094 -1.5822549
70-14 0.44015837 0.31210575 -0.1428938 -0.4738707 0.09350328 0.33543456 -0.042263452 -0.10181787 -0.4993378 -0.12572351 -0.49461466 -0.4176542 0.44904017 -0.9506435 0.88888204 1.0472491 -0.053374037 -1.7423458 -1.5335464 -0.5537198
85-9 -0.85944504 0.068907104 -0.13577119 -0.41018975 0.104603365 -0.44949305 -0.27725983 1.0244682 -0.043801814 0.2809896 -0.18745443 -0.32742333 0.019453472 0.5363489 0.77888924 -0.45738497 -0.6688057 -2.5652084 0.21955204 -0.11753718
53-11 -1.0306869 0.26155826 0.01644191 -0.29041332 0.6070072 -0.33087048 0.044234864 0.8031708 0.21294495 0.56320274 -0.11278174 -0.46650377 0.03197142 0.23243177 0.476519 -0.3793571 -0.55574286 -2.4988308 0.35281208 -0.4180303
4-2 0.911858 -0.053635743 -0.23091187 0.33138824 0.09503824 -0.2996909 0.6110879 1.0170473 -0.4824798 1.126953 0.617393 -0.2784496 0.28820053 1.1633356 0.5704272 1.1086258 0.075082436 -0.90233195 -0.42774665 -1.2423701
72-1 -0.2782301 -0.6395174 0.7257651 0.5898568 0.18036772 -0.47212914 -1.0469282 1.0353428 -0.21082053 0.35124728 1.0055217 0.1421953 0.49872804 -0.93983847 0.25098974 0.07598941 1.0738863 -1.2268119 -0.31828332 -0.9040346
29-7 0.9198205 0.32594413 0.2045045 0.47334528 -0.10815292 -0.5014145 0.51475847 0.70608103 -0.2862342 0.70122397 0.38149586 -0.21439707 0.23060729 1.0997348 0.81702155 1.3113166 0.0891812 -1.1556553 -0.6181493 -1.3060542
79-16 0.31680718 -0.25115255 -1.475343 -0.55193114 0.53220737 -0.45976892 0.40102395 0.27288777 0.27188545 -0.43596354 0.5147228 0.18137974 0.62562466 0.26968324 -0.48329687 -0.24284491 1.2879839 -1.5894152 -0.6998096 -0.85232574
19-3 -0.7503252 -0.43528962 -0.3183967 0.28574452 -0.24952291 -0.05062022 -0.07578767 -0.5499206 -1.0133063 0.66934186 1.0548886 0.31925946 0.3256692 -0.2767506 -0.5287896 0.35485536 -0.9293782 -1.6408985 -1.2662286 -0.73702043
78-19 -0.04823317 0.63156575 -0.11206898 -1.1956431 -1.197885 -0.17465124 0.40374577 0.13697769 -0.38002157 0.8172746 1.1070927 -0.090980925 -0.7927765 -0.5111553 0.31127658 -0.02778859 0.9711941 -1.2018464 -0.29330117 -1.1791468
41-11 0.046609066 -0.7026392 0.5396559 -0.46336904 -0.04846771 1.1738385 -0.071986645 -0.56848615 -0.45367888 -0.42197943 1.1196679 -0.8194558 0.16257557 0.5997466 -0.20656931 0.9431166 0.41086018 -1.8695357 0.15210134 -0.5412099
97-4 0.73043144 0.009554299 -0.20128487 0.31393003 0.078177735 -0.3322886 0.74925447 1.0056281 -0.33623683 0.78920364 0.82553136 0.07239149 0.26850984 1.0561693 0.80148757 1.2148713 -0.17793748 -0.88064325 -0.40148178 -1.4609618
32-11 0.9389954 0.117757544 0.03008318 0.55637753 0.06317096 -0.18461813 0.38435772 0.72595394 -0.6264498 0.67418975 0.35168162 0.009114382 0.38370386 0.99410194 1.1725261 1.045579 -0.00013561503 -1.0814836 -0.7417961 -1.3236272
55-4 0.34130067 0.70731515 0.46439162 -0.44936523 0.22518927 0.37595037 0.5785104 0.83639956 0.13822176 0.13986301 0.9396506 0.33762914 0.9458275 0.1935914 -0.20090511 -0.22611688 0.54210633 -1.5789288 -1.7184024 0.36842063
81-13 1.1240786 0.42973092 0.08279992 0.68289477 -0.06813531 -0.076475926 0.45610985 0.9260181 -0.29510087 0.8878522 0.9511152 0.11486509 0.2785482 1.1776642 0.7329699 0.9374319 0.002795777 -1.1417776 -0.49312314 -1.0609186
92-12 1.0695983 -0.20164508 0.0078411605 -0.98741883 -0.33285585 -0.71441966 -0.57240516 0.97967374 -0.82603186 -0.7776096 0.5243371 0.1179224 -0.72964716 -0.18314771 -0.2801019 0.17707798 -0.5495498 -1.4980234 -0.8318013 -0.71435547
0-15 -0.9437952 0.21083945 0.09509373 -0.34159663 0.07380017 -0.67322385 -0.051669974 0.7044427 0.22437024 0.5704783 -0.1343127 -0.39458218 0.38156235 0.32544702 0.48503608 -0.20491384 -0.41949084 -2.5456882 0.46664646 -0.023202408
56-3 0.20688161 -0.41875628 0.39401877 0.17373522 0.122850634 0.10819248 1.216101 0.21375233 -0.79194295 0.25646538 -0.079796165 0.12308635 0.42858893 -0.3035487 -0.49379387 -1.1895802 -0.16255502 -1.7006756 -0.22836149 -1.539001
92-8 0.7269272 0.36400592 0.031886287 0.57565695 -0.20741545 -0.5119961 0.57929945 0.94119585 -0.5061603 0.48858064 0.8505449 -0.10734195 0.54669666 0.9774187 0.9205892 1.1709831 0.021182809 -0.90682214 -0.33923063 -1.3475453
20-14 0.69727826 -0.26502645 -1.2542956 -0.3850093 0.7270814 -0.42007735 0.12809794 0.12153523 -0.1297927 -0.7194555 0.6427848 -0.3287265 0.44861072 0.55898476 -0.56168824 -0.2702369 1.1376301 -1.7940867 -0.52044195 -0.7226814
93-12 -0.057549186 0.6678726 0.5631041 -0.4584383 -0.17125036 -0.91015404 -0.262204 0.56702924 -1.0340434 0.007962347 0.7722761 -0.21597451 1.6814502 -0.58392525 -0.21223791 0.3460201 0.3456569 -1.2947404 0.7313531 -0.6426544
34-8 -0.478551 -0.32482764 -0.41585022 -0.06456754 -0.9913758 0.29351404 0.3538802 1.7456012 -0.6841855 0.317954 -0.14361025 -1.0398355 0.23285769 0.12829217 -1.0922215 0.73774093 0.50471795 -1.0687909 -0.68741375 -0.40973538
3-2 -0.0650614 -0.13718842 -0.35846817 -0.546315 -0.34679833 0.93630475 -0.5553421 0.5595235 -1.103765 0.07760292 -0.37653175 0.77777916 1.1888877 0.7173651 0.6978982 -0.56241804 0.5824525 -1.4315437 -0.5931332 -0.7999129
38-19 0.21684259 -0.4635989 0.41446066 0.18190248 0.20682438 0.051841855 1.2895352 0.27216563 -0.587088 0.21982937 -0.057967987 0.030963585 0.31296557 -0.44144893 -0.6738297 -1.0272079 -0.18002549 -1.7839804 -0.15461773 -1.6387796
80-2 0.13146706 0.68299717 0.5977912 -0.52850777 -0.05000894 0.42337298 0.81991506 0.9428117 0.23701277 0.06851782 0.96285343 0.6382091 0.98771614 0.064090975 -0.05895273 -0.06312265 0.31500843 -1.5307658 -1.5610907 0.30182815
52-6 -0.11528488 -0.55655223 -0.27692834 -0.714641 -0.36930865 1.213428 -0.5482084 0.49009714 -1.0855777 0.19955277 -0.2741844 0.60140246 1.1286906 0.6593009 0.8588614 -0.16280487 0.39189288 -1.3802041 -0.15314016 -0.8931261
38-7 -0.38431007 -0.7517861 0.8144756 0.51026535 0.19021493 -0.40170208 -0.89308083 0.87300223 0.0718215 0.4864543 0.90801984 0.3909835 0.284245 -0.84730697 0.07524825 0.18746167 1.1659888 -1.3370447 -0.3790988 -0.95793176
98-2 0.009727176 -0.25863072 0.9216062 -0.34710696 -0.69282526 -0.66442674 -0.058325943 0.040063385 0.8125483 0.56761324 -0.3842159 0.36847624 0.25524417 0.88232076 -0.5323512 0.9415157 0.2974769 -2.0072443 -0.056798436 -1.0077626
18-15 0.7547697 0.0643625 -0.07033312 0.6624519 -0.0085729705 -0.27187032 0.39326397 0.525324 -0.58461577 0.7654387 0.9184121 -0.21439527 0.2036763 1.1809741 0.75068533 1.145265 -0.06454018 -1.0851458 -0.5648539 -1.2420171
60-16 0.7293935 0.015977947 0.09334388 0.71030724 0.06512813 -0.47307897 0.42252457 0.9349904 -0.44459945 0.7403299 0.76809627 0.117885605 0.26012838 0.89404476 0.96217084 1.1246728 0.22826329 -0.98645234 -0.48973414 -1.4029715
47-2 -0.13256761 -0.4224665 0.46806315 0.21463367 0.002359683 0.11428056 1.5752826 0.51521814 -0.6112551 0.12317895 -0.036387533 0.11868112 0.09342143 -0.52529424 -0.34752157 -0.8771715 -0.29919004 -1.8246863 -0.008992464 -1.5140265
9-15 -0.73357445 0.16334246 -0.5191577 -0.09588893 0.32008904 -0.4381908 0.002936376 0.81794655 0.27084622 0.3890977 0.0668048 -0.48322532 0.02885925 0.41269815 0.58843344 -0.3659052 -0.27999672 -2.6187246 0.3944923 -0.030131921
30-9 -0.820146 0.42858508 0.09888742 -0.3639896 0.27373314 -0.57918113 0.06377397 0.9223762 0.23747423 0.5281831 0.1835355 -0.59248203 0.39039713 0.43410158 0.64911455 -0.265747 -0.4292698 -2.3820677 0.26508427 0.08049677
38-18 0.44837365 -0.11967473 -1.270596 -0.28983545 0.6345846 -0.38772583 0.19159977 0.102509946 -0.17249414 -0.47830325 0.18559025 0.13577436 0.63131267 0.5375771 -0.36519417 -0.61038715 1.1535836 -1.6481029 -0.54171133 -1.1678163
77-9 0.99518144 0.29450816 -0.15857087 0.4777263 0.21678378 -0.44834918 0.5015349 0.65370435 -0.44489938 0.6051286 0.5778467 -0.3038794 0.35747087 1.0426289 0.93522066 1.0821478 0.21229403 -1.0891495 -0.75402355 -1.3013895
8-13 0.3479717 -0.49828514 0.65918523 -0.6911434 0.029091882 1.2993802 0.15946217 -0.17854635 -0.21582119 -0.4254714 1.1012629 -0.74194413 0.24529868 0.6147042 -0.14856716 0.7227903 0.6051776 -1.8683258 0.11144724 -0.15837097
32-0 0.24827115 -0.060918678 -1.5887544 -0.22044316 0.6239396 -0.55712813 0.036427062 -0.18384242 -0.14934619 -0.35430014 0.6807954 0.003848546 0.73517793 0.4887733 -0.62105185 -0.29787886 1.0195498 -1.7722826 -0.82943344 -0.9079137
52-19 0.30204728 -0.44354558 0.68319434 0.11955185 0.015636684 -0.055816017 1.2364419 0.4664155 -0.68419164 0.08119816 0.026707267 0.12607454 0.024349423 -0.46389762 -0.68152785 -0.9363848 -0.3845419 -1.739212 -0.14469823 -1.5339485
51-15 -0.8435934 -0.13479888 -0.1787799 0.15263657 -0.5039704 -0.45932424 -0.48180214 -0.35296857 -1.2103378 0.32087478 1.1500041 0.24309875 0.35010892 -0.17122482 -0.60121614 0.57771885 -0.81481916 -1.6438364 -1.10619 -0.47392565
